/* Generated by Edge Impulse
 *
 * Permission is hereby granted, free of charge, to any person obtaining a copy
 * of this software and associated documentation files (the "Software"), to deal
 * in the Software without restriction, including without limitation the rights
 * to use, copy, modify, merge, publish, distribute, sublicense, and/or sell
 * copies of the Software, and to permit persons to whom the Software is
 * furnished to do so, subject to the following conditions:
 *
 * The above copyright notice and this permission notice shall be included in
 * all copies or substantial portions of the Software.
 *
 * THE SOFTWARE IS PROVIDED "AS IS", WITHOUT WARRANTY OF ANY KIND, EXPRESS OR
 * IMPLIED, INCLUDING BUT NOT LIMITED TO THE WARRANTIES OF MERCHANTABILITY,
 * FITNESS FOR A PARTICULAR PURPOSE AND NONINFRINGEMENT. IN NO EVENT SHALL THE
 * AUTHORS OR COPYRIGHT HOLDERS BE LIABLE FOR ANY CLAIM, DAMAGES OR OTHER
 * LIABILITY, WHETHER IN AN ACTION OF CONTRACT, TORT OR OTHERWISE, ARISING FROM,
 * OUT OF OR IN CONNECTION WITH THE SOFTWARE OR THE USE OR OTHER DEALINGS IN THE
 * SOFTWARE.
 */
// Generated on: 04.07.2022 14:27:39

#include <stdio.h>
#include <stdlib.h>
#include <vector>
#include "edge-impulse-sdk/tensorflow/lite/c/builtin_op_data.h"
#include "edge-impulse-sdk/tensorflow/lite/c/common.h"
#include "edge-impulse-sdk/tensorflow/lite/micro/micro_mutable_op_resolver.h"
#include "edge-impulse-sdk/porting/ei_classifier_porting.h"

#if EI_CLASSIFIER_PRINT_STATE
#if defined(__cplusplus) && EI_C_LINKAGE == 1
extern "C" {
    extern void ei_printf(const char *format, ...);
}
#else
extern void ei_printf(const char *format, ...);
#endif
#endif

#if defined __GNUC__
#define ALIGN(X) __attribute__((aligned(X)))
#elif defined _MSC_VER
#define ALIGN(X) __declspec(align(X))
#elif defined __TASKING__
#define ALIGN(X) __align(X)
#endif

using namespace tflite;
using namespace tflite::ops;
using namespace tflite::ops::micro;

namespace {

constexpr int kTensorArenaSize = 333840;

#if defined(EI_CLASSIFIER_ALLOCATION_STATIC)
uint8_t tensor_arena[kTensorArenaSize] ALIGN(16);
#elif defined(EI_CLASSIFIER_ALLOCATION_STATIC_HIMAX)
static uint8_t tensor_arena[kTensorArenaSize] __attribute__((section(".tensor_arena")));
#elif defined(EI_CLASSIFIER_ALLOCATION_STATIC_HIMAX_GNU)
uint8_t tensor_arena[kTensorArenaSize] ALIGN(16) __attribute__((section(".tensor_arena")));
#else
#define EI_CLASSIFIER_ALLOCATION_HEAP 1
uint8_t* tensor_arena = NULL;
#endif

static uint8_t* tensor_boundary;
static uint8_t* current_location;

template <int SZ, class T> struct TfArray {
  int sz; T elem[SZ];
};
enum used_operators_e {
  OP_CONV_2D, OP_DEPTHWISE_CONV_2D, OP_PAD, OP_ADD, OP_FULLY_CONNECTED, OP_RESHAPE, OP_SOFTMAX,  OP_LAST
};
struct TensorInfo_t { // subset of TfLiteTensor used for initialization from constant memory
  TfLiteAllocationType allocation_type;
  TfLiteType type;
  void* data;
  TfLiteIntArray* dims;
  size_t bytes;
  TfLiteQuantization quantization;
};
struct NodeInfo_t { // subset of TfLiteNode used for initialization from constant memory
  struct TfLiteIntArray* inputs;
  struct TfLiteIntArray* outputs;
  void* builtin_data;
  used_operators_e used_op_index;
};

TfLiteContext ctx{};
TfLiteTensor tflTensors[181];
TfLiteEvalTensor tflEvalTensors[181];
TfLiteRegistration registrations[OP_LAST];
TfLiteNode tflNodes[70];

const TfArray<4, int> tensor_dimension0 = { 4, { 1,96,96,1 } };
const TfArray<1, float> quant0_scale = { 1, { 0.0036139946896582842, } };
const TfArray<1, int> quant0_zero = { 1, { -128 } };
const TfLiteAffineQuantization quant0 = { (TfLiteFloatArray*)&quant0_scale, (TfLiteIntArray*)&quant0_zero, 0 };
const ALIGN(16) int32_t tensor_data1[4*2] = { 
  0, 0, 
  0, 1, 
  0, 1, 
  0, 0, 
};
const TfArray<2, int> tensor_dimension1 = { 2, { 4,2 } };
const ALIGN(8) int32_t tensor_data2[2] = { -1, 144, };
const TfArray<1, int> tensor_dimension2 = { 1, { 2 } };
const ALIGN(16) int8_t tensor_data3[16*3*3*1] = { 
  /* [0][0][][] */ -85, -110, -30, 
  /* [0][1][][] */ 67, -37, 17, 
  /* [0][2][][] */ 32, 127, 19, 
  /* [1][0][][] */ 105, -95, -10, 
  /* [1][1][][] */ -127, 104, 23, 
  /* [1][2][][] */ 14, -2, -13, 
  /* [2][0][][] */ -24, -2, -48, 
  /* [2][1][][] */ 36, 95, 127, 
  /* [2][2][][] */ -12, -94, -79, 
  /* [3][0][][] */ 120, 126, 58, 
  /* [3][1][][] */ 2, -22, -15, 
  /* [3][2][][] */ -101, -127, -44, 
  /* [4][0][][] */ 26, -57, 1, 
  /* [4][1][][] */ 26, -127, 2, 
  /* [4][2][][] */ 15, -84, -12, 
  /* [5][0][][] */ -61, 28, -1, 
  /* [5][1][][] */ -127, 33, 3, 
  /* [5][2][][] */ -85, 26, 0, 
  /* [6][0][][] */ -17, 79, 127, 
  /* [6][1][][] */ -51, 55, -16, 
  /* [6][2][][] */ -36, -52, -88, 
  /* [7][0][][] */ 38, 28, -16, 
  /* [7][1][][] */ 127, 70, -7, 
  /* [7][2][][] */ 31, 3, -24, 
  /* [8][0][][] */ -21, -30, 53, 
  /* [8][1][][] */ -54, -87, 127, 
  /* [8][2][][] */ -26, -61, 96, 
  /* [9][0][][] */ -22, 51, -10, 
  /* [9][1][][] */ -15, 127, -12, 
  /* [9][2][][] */ -7, 88, -7, 
  /* [10][0][][] */ 24, 87, 12, 
  /* [10][1][][] */ -37, -127, -29, 
  /* [10][2][][] */ 12, 40, 18, 
  /* [11][0][][] */ 7, -19, 10, 
  /* [11][1][][] */ 65, -93, 35, 
  /* [11][2][][] */ -85, 127, -46, 
  /* [12][0][][] */ -41, 49, -10, 
  /* [12][1][][] */ -127, 114, 6, 
  /* [12][2][][] */ -78, 79, 5, 
  /* [13][0][][] */ 79, 22, -15, 
  /* [13][1][][] */ 127, 105, -10, 
  /* [13][2][][] */ 72, 104, 36, 
  /* [14][0][][] */ -30, -28, 48, 
  /* [14][1][][] */ 44, 98, -127, 
  /* [14][2][][] */ -16, -70, 81, 
  /* [15][0][][] */ -85, -27, 19, 
  /* [15][1][][] */ -127, -123, 17, 
  /* [15][2][][] */ -22, -73, -7, 
};
const TfArray<4, int> tensor_dimension3 = { 4, { 16,3,3,1 } };
const TfArray<16, float> quant3_scale = { 16, { 0.021764988079667091, 0.040345512330532074, 0.023399509489536285, 0.01777123287320137, 0.0030583953484892845, 0.003921369556337595, 0.014861965551972389, 0.003354592015966773, 0.01827227883040905, 0.0043121026828885078, 0.032765720039606094, 0.030783278867602348, 0.023922797292470932, 0.0021857121028006077, 0.030632965266704559, 0.004490213468670845, } };
const TfArray<16, int> quant3_zero = { 16, { 0,0,0,0,0,0,0,0,0,0,0,0,0,0,0,0 } };
const TfLiteAffineQuantization quant3 = { (TfLiteFloatArray*)&quant3_scale, (TfLiteIntArray*)&quant3_zero, 0 };
const ALIGN(16) int32_t tensor_data4[16] = { 2473, 1108, 1250, 3447, 80011, 62707, 13188, 84018, 10827, 66857, 3814, -67, 18953, 121797, 753, -31055, };
const TfArray<1, int> tensor_dimension4 = { 1, { 16 } };
const TfArray<16, float> quant4_scale = { 16, { 7.8658551501575857e-05, 0.00014580847346223891, 8.4565705037675798e-05, 6.4225139794871211e-05, 1.1053024536522571e-05, 1.417180919816019e-05, 5.3711064538219944e-05, 1.2123477972636465e-05, 6.6035921918228269e-05, 1.558391704747919e-05, 0.00011841514060506597, 0.00011125060700578615, 8.645686466479674e-05, 7.8991515692905523e-06, 0.0001107073767343536, 1.6227608284680173e-05, } };
const TfArray<16, int> quant4_zero = { 16, { 0,0,0,0,0,0,0,0,0,0,0,0,0,0,0,0 } };
const TfLiteAffineQuantization quant4 = { (TfLiteFloatArray*)&quant4_scale, (TfLiteIntArray*)&quant4_zero, 0 };
const ALIGN(16) int8_t tensor_data5[1*3*3*16] = { 
  /* [0][0][][] */ 2,-4,4,4,-19,11,7,16,-5,-11,1,-9,-2,-8,0,-1, 7,-5,1,4,13,-2,11,-26,-7,9,-4,87,-9,20,5,0, 2,-5,-5,3,2,-13,-3,11,2,2,-3,-9,1,-5,-4,-1, 
  /* [0][1][][] */ 13,-9,2,3,127,-24,-127,-21,127,127,0,-6,111,-24,-1,-19, -127,127,127,-1,-87,-91,-16,-102,17,-105,127,127,127,127,127,127, 20,-3,-5,0,-10,127,3,-10,-2,-12,-5,-5,10,-4,-12,-9, 
  /* [0][2][][] */ 1,-4,-1,-15,-18,16,53,7,-9,-8,-1,-1,-5,1,-6,-11, 22,-14,-5,-127,7,-15,-10,127,-5,1,2,-15,-10,-57,-8,-36, 3,-4,-4,-3,1,-4,-1,-2,1,2,-2,0,0,-5,-8,-12, 
};
const TfArray<4, int> tensor_dimension5 = { 4, { 1,3,3,16 } };
const TfArray<16, float> quant5_scale = { 16, { 0.003448521951213479, 0.0079918894916772842, 0.0078272074460983276, 0.0080792820081114769, 0.040040742605924606, 0.029096713289618492, 0.0069279484450817108, 0.029020506888628006, 0.0099409362301230431, 0.038154974579811096, 0.0085100065916776657, 0.0077207763679325581, 0.0043655633926391602, 0.0095228543505072594, 0.0082917651161551476, 0.023152858018875122, } };
const TfArray<16, int> quant5_zero = { 16, { 0,0,0,0,0,0,0,0,0,0,0,0,0,0,0,0 } };
const TfLiteAffineQuantization quant5 = { (TfLiteFloatArray*)&quant5_scale, (TfLiteIntArray*)&quant5_zero, 3 };
const ALIGN(16) int32_t tensor_data6[16] = { 49254, -1014, -959, 5861, -1678, 495, 17827, 2874, 1495, 536, -3936, 5432, 1025, -825, -626, -1997, };
const TfArray<1, int> tensor_dimension6 = { 1, { 16 } };
const TfArray<16, float> quant6_scale = { 16, { 4.596951839630492e-05, 0.00010653356002876535, 0.00010433830902911723, 0.00010769852087832987, 0.00053375144489109516, 0.00038786526420153677, 9.2351001512724906e-05, 0.00038684942410327494, 0.00013251476048026234, 0.0005086137680336833, 0.00011344016820657998, 0.00010291956277796999, 5.819387297378853e-05, 0.00012694163888227195, 0.00011053096386604011, 0.00030863244319334626, } };
const TfArray<16, int> quant6_zero = { 16, { 0,0,0,0,0,0,0,0,0,0,0,0,0,0,0,0 } };
const TfLiteAffineQuantization quant6 = { (TfLiteFloatArray*)&quant6_scale, (TfLiteIntArray*)&quant6_zero, 0 };
const ALIGN(16) int8_t tensor_data7[8*1*1*16] = { 
  /* [0][0][][] */ -13,-14,-19,-66,-26,-35,19,-18,38,8,-32,-6,111,127,-20,-106, 
  /* [1][0][][] */ 127,-60,-42,15,-46,72,-69,-44,-40,84,-34,-52,-9,4,-64,-18, 
  /* [2][0][][] */ -36,-96,41,41,47,-55,-77,-21,30,-88,26,-127,44,-22,-76,22, 
  /* [3][0][][] */ 37,13,15,16,-12,69,-52,-20,127,45,11,23,4,-13,11,23, 
  /* [4][0][][] */ -94,-37,-26,-127,-9,39,53,-117,31,-18,-47,-38,-120,31,-40,-24, 
  /* [5][0][][] */ 88,51,70,-27,46,-48,-127,-123,-18,-77,66,49,-58,50,65,-45, 
  /* [6][0][][] */ 107,40,-126,-77,29,-74,5,-91,-41,20,-127,96,92,-89,7,73, 
  /* [7][0][][] */ -127,-3,97,-28,-64,4,-2,-61,-51,62,85,-32,62,-26,30,29, 
};
const TfArray<4, int> tensor_dimension7 = { 4, { 8,1,1,16 } };
const TfArray<8, float> quant7_scale = { 8, { 0.0081800585612654686, 0.0095678027719259262, 0.0079526863992214203, 0.0092860786244273186, 0.0070665106177330017, 0.0071527557447552681, 0.0069983173161745071, 0.010597777552902699, } };
const TfArray<8, int> quant7_zero = { 8, { 0,0,0,0,0,0,0,0 } };
const TfLiteAffineQuantization quant7 = { (TfLiteFloatArray*)&quant7_scale, (TfLiteIntArray*)&quant7_zero, 0 };
const ALIGN(16) int32_t tensor_data8[8] = { -13874, -5822, 22690, -19201, 43967, 14610, -17110, 21066, };
const TfArray<1, int> tensor_dimension8 = { 1, { 8 } };
const TfArray<8, float> quant8_scale = { 8, { 0.00010020875924965367, 0.00011720914335455745, 9.7423369879834354e-05, 0.00011375791655154899, 8.6567386460956186e-05, 8.7623920990154147e-05, 8.5731990111526102e-05, 0.00012982671614736319, } };
const TfArray<8, int> quant8_zero = { 8, { 0,0,0,0,0,0,0,0 } };
const TfLiteAffineQuantization quant8 = { (TfLiteFloatArray*)&quant8_scale, (TfLiteIntArray*)&quant8_zero, 0 };
const ALIGN(16) int8_t tensor_data9[48*1*1*8] = { 
  /* [0][0][][] */ -40,29,2,-16,-80,-36,-127,32, 
  /* [1][0][][] */ 84,-77,-56,-53,127,-88,96,25, 
  /* [2][0][][] */ -106,124,-50,-127,52,-21,-27,43, 
  /* [3][0][][] */ 52,23,96,8,98,122,127,-13, 
  /* [4][0][][] */ -72,-127,66,8,-57,-111,4,-35, 
  /* [5][0][][] */ 127,-24,68,65,-70,-9,1,-23, 
  /* [6][0][][] */ 25,35,127,-27,44,-36,-43,29, 
  /* [7][0][][] */ 28,7,-127,-35,-41,98,98,-75, 
  /* [8][0][][] */ -2,127,-35,12,64,104,47,55, 
  /* [9][0][][] */ -7,127,-65,90,15,-114,43,121, 
  /* [10][0][][] */ 4,-127,-4,-28,-78,-122,-57,-83, 
  /* [11][0][][] */ -127,-80,105,50,-8,-64,100,64, 
  /* [12][0][][] */ -27,44,-127,81,34,-55,-72,98, 
  /* [13][0][][] */ 90,-127,92,79,8,33,37,-59, 
  /* [14][0][][] */ -28,95,-38,-127,-28,-111,-27,-62, 
  /* [15][0][][] */ 41,113,32,-16,36,-65,97,-127, 
  /* [16][0][][] */ -114,-127,-60,92,-54,23,-19,78, 
  /* [17][0][][] */ -26,-113,-127,86,-63,75,-51,75, 
  /* [18][0][][] */ -97,-75,-50,92,-9,72,-4,127, 
  /* [19][0][][] */ 62,-124,102,-127,12,-67,32,-33, 
  /* [20][0][][] */ -3,73,32,13,42,127,75,-11, 
  /* [21][0][][] */ 27,113,46,-33,39,-67,93,-127, 
  /* [22][0][][] */ 22,12,103,20,-10,127,31,-36, 
  /* [23][0][][] */ -101,-67,36,-73,92,100,-62,-127, 
  /* [24][0][][] */ -97,-91,36,-86,108,106,-45,-127, 
  /* [25][0][][] */ 127,9,-59,-14,14,33,-62,-8, 
  /* [26][0][][] */ -127,-36,-125,-24,-52,-29,20,-2, 
  /* [27][0][][] */ 79,33,-2,-59,-127,-25,87,90, 
  /* [28][0][][] */ -127,-84,6,50,-77,-103,6,1, 
  /* [29][0][][] */ 123,102,43,-127,28,11,-65,-95, 
  /* [30][0][][] */ -88,-68,40,-70,75,89,-52,-127, 
  /* [31][0][][] */ 48,44,-5,127,5,-72,8,9, 
  /* [32][0][][] */ -28,127,-7,37,23,69,-17,49, 
  /* [33][0][][] */ -36,127,-75,26,22,-32,-25,1, 
  /* [34][0][][] */ -127,-114,-50,105,-14,14,23,104, 
  /* [35][0][][] */ -52,127,-30,-5,70,106,54,69, 
  /* [36][0][][] */ 71,28,1,-45,-127,-30,102,108, 
  /* [37][0][][] */ -66,110,27,22,-127,107,-24,-98, 
  /* [38][0][][] */ 35,37,30,22,127,73,105,55, 
  /* [39][0][][] */ -24,-68,37,-18,11,38,-96,127, 
  /* [40][0][][] */ -70,-57,-72,127,-30,1,11,68, 
  /* [41][0][][] */ 127,13,57,106,-48,-11,-5,-21, 
  /* [42][0][][] */ -42,9,-71,-127,54,-106,4,84, 
  /* [43][0][][] */ 25,-6,86,-5,36,127,90,7, 
  /* [44][0][][] */ -29,-28,-69,127,46,11,-40,-39, 
  /* [45][0][][] */ 67,127,112,-118,50,-60,21,-119, 
  /* [46][0][][] */ -35,-127,-42,33,-8,40,-66,123, 
  /* [47][0][][] */ 41,45,126,3,95,124,127,-24, 
};
const TfArray<4, int> tensor_dimension9 = { 4, { 48,1,1,8 } };
const TfArray<48, float> quant9_scale = { 48, { 0.0047908122651278973, 0.0044097849167883396, 0.0033107202034443617, 0.0030564640183001757, 0.00075950269820168614, 0.0038716667331755161, 0.0054925377480685711, 0.0022255901712924242, 0.0032707410864531994, 0.0048666046932339668, 0.0033909068442881107, 0.003189433366060257, 0.002265026792883873, 0.004066812340170145, 0.0032419103663414717, 0.0034391507506370544, 0.0024678250774741173, 0.00090459873899817467, 0.0025986754335463047, 0.0035025191027671099, 0.0039461497217416763, 0.0020676623098552227, 0.0045269913971424103, 0.0025676859077066183, 0.003764705965295434, 0.0074274493381381035, 0.0031577444169670343, 0.0058005666360259056, 0.0025439842138439417, 0.00068017997546121478, 0.002635847544297576, 0.0073888124898076057, 0.0043801027350127697, 0.0040483898483216763, 0.0029997117817401886, 0.0037981329951435328, 0.0028514291625469923, 0.0059699281118810177, 0.0039722020737826824, 0.0055808029137551785, 0.0034651057794690132, 0.0035852491855621338, 0.0035328618250787258, 0.0045120459981262684, 0.0035279723815619946, 0.0023940075188875198, 0.002794293686747551, 0.0030732445884495974, } };
const TfArray<48, int> quant9_zero = { 48, { 0,0,0,0,0,0,0,0,0,0,0,0,0,0,0,0,0,0,0,0,0,0,0,0,0,0,0,0,0,0,0,0,0,0,0,0,0,0,0,0,0,0,0,0,0,0,0,0 } };
const TfLiteAffineQuantization quant9 = { (TfLiteFloatArray*)&quant9_scale, (TfLiteIntArray*)&quant9_zero, 0 };
const ALIGN(16) int32_t tensor_data10[48] = { 5110, -2082, -1855, 6169, 62679, 7717, -2234, 19336, 6418, 6632, 1082, 13469, 5274, 2345, -4208, 1991, 14324, 49874, 14150, -3509, 5409, -5949, -468, 13972, -1637, -3464, 7960, -248, 15154, 69511, 13329, -130, 1936, -535, 11777, -21, 3369, -966, 5261, 5172, 7731, 8799, 913, -1497, 3865, 10236, 6176, -927, };
const TfArray<1, int> tensor_dimension10 = { 1, { 48 } };
const TfArray<48, float> quant10_scale = { 48, { 9.9606193543877453e-05, 9.1684225481003523e-05, 6.8833469413220882e-05, 6.3547209720127285e-05, 1.5790887118782848e-05, 8.0496160080656409e-05, 0.00011419583461247385, 4.6272438339656219e-05, 6.8002264015376568e-05, 0.00010118200589204207, 7.0500638685189188e-05, 6.6311789851170033e-05, 4.7092369641177356e-05, 8.4553452325053513e-05, 6.740284152328968e-05, 7.1503680374007672e-05, 5.1308765250723809e-05, 1.8807591914082877e-05, 5.4029289458412677e-05, 7.282118167495355e-05, 8.2044745795428753e-05, 4.298894782550633e-05, 9.4121074653230608e-05, 5.3384981583803892e-05, 7.8272329119499773e-05, 0.00015442474978044629, 6.5652937337290496e-05, 0.00012060008884873241, 5.2892199164489284e-05, 1.414168127666926e-05, 5.4802138038212433e-05, 0.00015362144040409476, 9.1067100584041327e-05, 8.4170424088370055e-05, 6.2367267673835158e-05, 7.8967314038891345e-05, 5.9284313465468585e-05, 0.00012412130308803171, 8.2586397184059024e-05, 0.00011603096209000796, 7.2043316322378814e-05, 7.4541225330904126e-05, 7.345203630393371e-05, 9.3810340331401676e-05, 7.3350383900105953e-05, 4.9774018407333642e-05, 5.8096404245588928e-05, 6.3896099163684994e-05, } };
const TfArray<48, int> quant10_zero = { 48, { 0,0,0,0,0,0,0,0,0,0,0,0,0,0,0,0,0,0,0,0,0,0,0,0,0,0,0,0,0,0,0,0,0,0,0,0,0,0,0,0,0,0,0,0,0,0,0,0 } };
const TfLiteAffineQuantization quant10 = { (TfLiteFloatArray*)&quant10_scale, (TfLiteIntArray*)&quant10_zero, 0 };
const ALIGN(16) int8_t tensor_data11[1*3*3*48] = { 
  /* [0][0][][] */ -50,-100,-13,-22,127,-55,69,-58,-88,-81,-22,-44,113,36,68,-127,62,-23,4,-40,-76,108,-1,13,-19,78,61,-34,75,-68,13,-43,-106,-85,44,72,21,79,112,-69,-125,-15,33,71,48,-127,87,79, -60,-125,-77,49,-85,107,59,-67,-69,43,77,-108,127,90,112,-79,-81,-82,34,-53,-78,97,-64,114,-87,103,88,-122,91,-48,6,-123,-49,-88,73,127,112,114,127,-67,-127,-66,65,88,81,111,90,72, 4,-58,-66,93,-45,-28,24,-5,87,23,57,-71,21,53,-39,-6,-82,-16,32,-34,-26,7,-76,-1,-70,44,18,-87,32,56,120,-71,15,11,-12,50,76,68,47,0,-22,92,60,31,38,30,15,-117, 
  /* [0][1][][] */ -124,-95,-16,-77,-82,-73,98,-112,-127,-127,84,-75,91,48,-126,-79,127,-127,-61,-75,-90,120,-43,8,-15,95,104,-49,-105,-76,-1,-52,-93,-127,-127,69,40,89,7,-90,58,-15,76,115,80,111,121,-127, -127,-127,-127,-105,-29,127,127,-127,88,67,127,-127,109,127,67,-121,55,-94,-127,-127,-127,127,-127,127,-127,127,127,-127,-127,127,-14,-127,-127,-109,47,127,127,127,-13,-127,96,-98,127,127,127,-2,127,111, -52,-66,-120,127,73,-44,46,-24,64,28,19,-57,12,63,77,-56,-19,3,-16,-69,-59,10,-75,-16,-112,48,25,-88,-52,38,127,-88,-58,10,59,76,81,73,-25,-32,42,127,75,20,51,-48,20,22, 
  /* [0][2][][] */ -108,-28,21,20,-44,-27,21,-43,26,-44,17,-37,4,20,-44,-15,-81,-21,95,-33,-14,37,-64,-14,-4,51,69,-16,33,57,-8,-5,6,-84,-42,38,13,9,-58,-41,18,-4,37,41,26,55,15,-66, -89,-41,-33,-71,90,42,54,-58,93,25,-40,-60,0,42,-127,-79,38,10,49,-67,-42,31,-60,55,-64,58,70,-36,35,5,-28,-36,-66,-25,-65,56,30,15,-103,-69,22,-42,77,69,42,-108,24,2, -30,-29,-49,-21,-24,-13,14,-21,-69,15,-15,-14,-8,13,37,-28,33,39,-1,-49,-34,-12,-16,-27,-53,6,17,-24,8,-62,54,-25,-85,20,20,45,20,17,-52,-31,0,49,23,21,17,-3,5,36, 
};
const TfArray<4, int> tensor_dimension11 = { 4, { 1,3,3,48 } };
const TfArray<48, float> quant11_scale = { 48, { 0.0034593343734741211, 0.0041916873306035995, 0.0077235368080437183, 0.0064562647603452206, 0.025419419631361961, 0.0060379169881343842, 0.0065019400790333748, 0.0046619563363492489, 0.00507001718506217, 0.0033048447221517563, 0.0030194851569831371, 0.0023436255287379026, 0.0040138121694326401, 0.003186891321092844, 0.0088743343949317932, 0.005983362440019846, 0.005719043780118227, 0.015115736983716488, 0.0071265720762312412, 0.0071251294575631618, 0.0056693996302783489, 0.015631865710020065, 0.0064758434891700745, 0.010687107220292091, 0.0045206416398286819, 0.0048669842071831226, 0.0026900987140834332, 0.0040780548006296158, 0.006528547964990139, 0.038662917912006378, 0.010090222582221031, 0.0035890510771423578, 0.0048084068112075329, 0.0066159260459244251, 0.0074272281490266323, 0.0028772768564522266, 0.0044585615396499634, 0.002051342511549592, 0.0054510454647243023, 0.0030343113467097282, 0.0070813968777656555, 0.0061389552429318428, 0.0036049257032573223, 0.0042091743089258671, 0.0035635342355817556, 0.013533354736864567, 0.0030697006732225418, 0.0075784921646118164, } };
const TfArray<48, int> quant11_zero = { 48, { 0,0,0,0,0,0,0,0,0,0,0,0,0,0,0,0,0,0,0,0,0,0,0,0,0,0,0,0,0,0,0,0,0,0,0,0,0,0,0,0,0,0,0,0,0,0,0,0 } };
const TfLiteAffineQuantization quant11 = { (TfLiteFloatArray*)&quant11_scale, (TfLiteIntArray*)&quant11_zero, 3 };
const ALIGN(16) int32_t tensor_data12[48] = { 16903, 7498, 6220, -206, 982, -1385, -730, 39901, -338, 1780, 8814, 72871, 1188, 2251, -99, 16297, -1522, 16748, 11, 9744, 16009, -8, 5494, -11948, 16637, 766, 1072, 17134, 183, -1863, -12414, 14425, 7290, 2952, -51, 3988, -11585, 11655, -1445, 24012, -44, -1214, 3567, 583, 514, -1134, 1156, -627, };
const TfArray<1, int> tensor_dimension12 = { 1, { 48 } };
const TfArray<48, float> quant12_scale = { 48, { 6.2532082665711641e-05, 7.5770338298752904e-05, 0.00013961322838440537, 0.00011670559615595266, 0.0004594899364747107, 0.00010914340236922726, 0.00011753124272217974, 8.4271079686004668e-05, 9.1647321823984385e-05, 5.9739479183917865e-05, 5.4581221775151789e-05, 4.2364157707197592e-05, 7.2555012593511492e-05, 5.7607310736784711e-05, 0.00016041543858591467, 0.00010815725545398891, 0.00010337934509152547, 0.00027323712129145861, 0.00012882229930255562, 0.00012879622227046639, 0.00010248196485918015, 0.0002825668198056519, 0.00011705951328622177, 0.00019318371778354049, 8.1716629210859537e-05, 8.797723421594128e-05, 4.8627123760525137e-05, 7.3716284532565624e-05, 0.00011801221262430772, 0.00069888384314253926, 0.00018239422934129834, 6.4876883698161691e-05, 8.691837138030678e-05, 0.00011959169205510989, 0.0001342570612905547, 5.2010618674103171e-05, 8.0594450992066413e-05, 3.7080753827467561e-05, 9.8534917924553156e-05, 5.4849224397912621e-05, 0.00012800568947568536, 0.00011096980597358197, 6.5163840190507472e-05, 7.6086442277301103e-05, 6.4415638917125762e-05, 0.00024463344016112387, 5.5488933867309242e-05, 0.00013699135161004961, } };
const TfArray<48, int> quant12_zero = { 48, { 0,0,0,0,0,0,0,0,0,0,0,0,0,0,0,0,0,0,0,0,0,0,0,0,0,0,0,0,0,0,0,0,0,0,0,0,0,0,0,0,0,0,0,0,0,0,0,0 } };
const TfLiteAffineQuantization quant12 = { (TfLiteFloatArray*)&quant12_scale, (TfLiteIntArray*)&quant12_zero, 0 };
const ALIGN(16) int8_t tensor_data13[8*1*1*48] = { 
  /* [0][0][][] */ -45,-3,32,12,-33,-14,10,9,-42,-6,-64,-56,-25,-64,-11,-31,46,-40,39,42,-16,32,-38,14,1,-39,55,-14,-4,-18,17,11,82,35,37,-127,18,-1,-17,-34,4,-17,44,47,36,5,28,2, 
  /* [1][0][][] */ 1,39,65,-27,-13,44,-50,-30,2,24,-16,-92,11,89,-17,58,-19,20,-25,-55,11,-79,-27,23,-72,-12,-2,-114,-26,-17,32,-53,50,79,-41,4,127,-31,2,49,-30,39,-82,-30,115,-20,-33,-26, 
  /* [2][0][][] */ -4,-21,-62,14,-3,44,26,3,-8,42,-3,27,64,-91,17,-61,35,-88,23,34,-24,52,-5,25,-17,60,-23,-69,17,4,19,-70,-46,-87,35,-30,106,21,-11,-58,-1,29,78,28,127,16,19,25, 
  /* [3][0][][] */ -5,25,-66,41,13,-37,-71,-102,11,-23,-36,0,4,26,33,77,-6,14,-37,25,5,-98,29,-58,-73,-9,127,-13,-44,2,-66,18,0,-80,11,-13,-21,-40,-23,102,-45,-37,-1,18,39,3,-39,42, 
  /* [4][0][][] */ -27,-46,-6,8,30,-29,-12,-8,27,-30,57,-78,6,29,8,10,-16,-24,11,-14,-4,-52,4,-20,17,-10,40,48,32,21,-15,27,-10,-2,2,-1,-68,83,35,-25,30,-20,-20,-24,-76,11,127,10, 
  /* [5][0][][] */ 46,-21,3,14,25,-43,34,-127,25,-30,-11,119,-81,66,22,-67,-1,-90,14,3,-37,66,-36,-47,-60,76,-26,3,-22,49,-43,-34,28,54,34,-6,-41,-9,-47,-41,16,-40,-47,-9,-35,56,88,19, 
  /* [6][0][][] */ 52,-21,21,-10,-36,-19,-36,19,-40,6,-40,127,-42,-36,-4,57,11,46,15,34,37,-82,-20,18,23,39,-64,6,9,-42,13,37,6,16,-15,-2,12,0,-3,-5,-8,-15,41,57,-2,-36,73,-15, 
  /* [7][0][][] */ -27,4,-7,66,34,32,5,30,23,6,70,-3,124,108,62,50,45,47,-14,3,22,-21,-88,-26,15,-3,-29,64,34,-27,-33,-18,37,6,42,-96,-75,38,40,56,-33,35,86,127,-60,-27,-109,62, 
};
const TfArray<4, int> tensor_dimension13 = { 4, { 8,1,1,48 } };
const TfArray<8, float> quant13_scale = { 8, { 0.0096787204965949059, 0.0052117141894996166, 0.0058633238077163696, 0.0061403708532452583, 0.008045257069170475, 0.0067136101424694061, 0.0095207691192626953, 0.0057099484838545322, } };
const TfArray<8, int> quant13_zero = { 8, { 0,0,0,0,0,0,0,0 } };
const TfLiteAffineQuantization quant13 = { (TfLiteFloatArray*)&quant13_scale, (TfLiteIntArray*)&quant13_zero, 0 };
const ALIGN(16) int32_t tensor_data14[8] = { 15893, 32504, -9471, 15398, -1602, 8632, -25075, -40241, };
const TfArray<1, int> tensor_dimension14 = { 1, { 8 } };
const TfArray<8, float> quant14_scale = { 8, { 0.00010687819303711876, 5.7550849305698648e-05, 6.4746309362817556e-05, 6.7805631260853261e-05, 8.8840512034948915e-05, 7.413567800540477e-05, 0.0001051339932018891, 6.3052648329176009e-05, } };
const TfArray<8, int> quant14_zero = { 8, { 0,0,0,0,0,0,0,0 } };
const TfLiteAffineQuantization quant14 = { (TfLiteFloatArray*)&quant14_scale, (TfLiteIntArray*)&quant14_zero, 0 };
const ALIGN(16) int8_t tensor_data15[48*1*1*8] = { 
  /* [0][0][][] */ 63,127,-79,-90,13,86,16,68, 
  /* [1][0][][] */ 59,-75,46,-127,-57,72,-85,-43, 
  /* [2][0][][] */ -29,127,117,49,109,4,51,9, 
  /* [3][0][][] */ 106,43,-94,63,-6,-103,-127,-35, 
  /* [4][0][][] */ -43,32,14,-68,-37,114,127,50, 
  /* [5][0][][] */ 23,76,-127,-77,45,88,33,-30, 
  /* [6][0][][] */ -9,127,64,58,76,11,17,-92, 
  /* [7][0][][] */ 127,-19,-34,28,22,4,107,17, 
  /* [8][0][][] */ 51,127,64,92,113,80,95,-82, 
  /* [9][0][][] */ 50,112,-127,-90,12,97,6,69, 
  /* [10][0][][] */ -68,-43,22,-49,-4,-30,-47,127, 
  /* [11][0][][] */ 16,-110,-127,-16,21,-13,38,-9, 
  /* [12][0][][] */ -27,-111,-123,-30,-127,30,-66,46, 
  /* [13][0][][] */ -9,9,-101,101,-127,-25,1,-17, 
  /* [14][0][][] */ -64,-43,-127,-8,37,-2,-12,-59, 
  /* [15][0][][] */ 22,-100,-127,15,-101,-27,-30,-13, 
  /* [16][0][][] */ 127,-67,-19,67,-84,25,32,100, 
  /* [17][0][][] */ -26,115,127,-26,-49,-10,-28,-21, 
  /* [18][0][][] */ 9,-127,46,70,-3,-64,50,-84, 
  /* [19][0][][] */ 127,-46,-57,38,-99,7,41,103, 
  /* [20][0][][] */ -29,-127,80,73,-15,-87,0,-74, 
  /* [21][0][][] */ -6,-50,-11,-33,127,-6,44,21, 
  /* [22][0][][] */ -127,26,-79,49,48,54,-93,-108, 
  /* [23][0][][] */ -93,-50,65,-4,-107,127,124,-50, 
  /* [24][0][][] */ -30,58,-5,-45,-41,124,127,1, 
  /* [25][0][][] */ -52,-110,-127,-61,-53,-16,-26,-43, 
  /* [26][0][][] */ -12,65,-16,127,-93,36,-54,-1, 
  /* [27][0][][] */ 16,-127,33,76,15,-54,6,-122, 
  /* [28][0][][] */ 19,127,59,45,115,-21,24,-64, 
  /* [29][0][][] */ 107,29,-38,-10,81,-127,-108,37, 
  /* [30][0][][] */ 24,-7,32,-127,18,-23,17,-23, 
  /* [31][0][][] */ 48,-40,3,64,-13,30,12,127, 
  /* [32][0][][] */ -86,-70,13,-62,-63,127,65,90, 
  /* [33][0][][] */ -34,45,48,-39,38,127,-111,73, 
  /* [34][0][][] */ 30,127,-74,-50,19,47,-68,64, 
  /* [35][0][][] */ 12,-127,33,54,-21,-60,40,-75, 
  /* [36][0][][] */ -17,-32,-79,-8,-127,-57,-17,11, 
  /* [37][0][][] */ -52,-127,72,83,-46,-89,-13,-50, 
  /* [38][0][][] */ -75,25,65,-71,-127,-88,-61,87, 
  /* [39][0][][] */ 68,-127,88,49,-10,-76,-16,-80, 
  /* [40][0][][] */ 0,60,23,47,-127,-12,-59,20, 
  /* [41][0][][] */ 108,127,-82,-113,55,22,-4,15, 
  /* [42][0][][] */ -11,-39,-16,14,127,12,46,20, 
  /* [43][0][][] */ 127,24,83,21,-71,-24,64,107, 
  /* [44][0][][] */ 68,44,-22,14,69,-113,-127,21, 
  /* [45][0][][] */ 47,13,20,19,80,-127,-3,-50, 
  /* [46][0][][] */ 59,-37,-9,127,39,57,20,72, 
  /* [47][0][][] */ -79,-81,44,67,-48,17,127,-75, 
};
const TfArray<4, int> tensor_dimension15 = { 4, { 48,1,1,8 } };
const TfArray<48, float> quant15_scale = { 48, { 0.0033599536400288343, 0.0025176045019179583, 0.00091154058463871479, 0.0027070636861026287, 0.0029733800329267979, 0.0036225211806595325, 0.001930785714648664, 0.00099902448710054159, 0.001937686582095921, 0.0035559397656470537, 0.0030275378376245499, 0.0030351807363331318, 0.00067024759482592344, 0.0035516193602234125, 0.0034755067899823189, 0.00078794610453769565, 0.0044590607285499573, 0.0028878927696496248, 0.0042622080072760582, 0.0031142616644501686, 0.0030870488844811916, 0.0032820876222103834, 0.0053133736364543438, 0.00055868917843326926, 0.0018607401289045811, 0.0020749582909047604, 0.0011365863028913736, 0.0037571450229734182, 0.0017258579609915614, 0.0018951175734400749, 0.0073033729568123817, 0.0059447032399475574, 0.0030171365942806005, 0.0033288395497947931, 0.0042188782244920731, 0.0043894289992749691, 0.0027725505642592907, 0.0043189357966184616, 0.003181681502610445, 0.0032861214131116867, 0.0027424658183008432, 0.0034719870891422033, 0.0031188298016786575, 0.0025594239123165607, 0.0020907721482217312, 0.0029281778261065483, 0.0051132063381373882, 0.0019462438067421317, } };
const TfArray<48, int> quant15_zero = { 48, { 0,0,0,0,0,0,0,0,0,0,0,0,0,0,0,0,0,0,0,0,0,0,0,0,0,0,0,0,0,0,0,0,0,0,0,0,0,0,0,0,0,0,0,0,0,0,0,0 } };
const TfLiteAffineQuantization quant15 = { (TfLiteFloatArray*)&quant15_scale, (TfLiteIntArray*)&quant15_zero, 0 };
const ALIGN(16) int32_t tensor_data16[48] = { 7005, 12694, 41390, 4179, 6625, -4316, 15926, 37663, 11545, -2157, 10447, -6201, 56719, -4801, 5189, 51832, -952, 5850, 356, 7565, 8920, 8789, 1309, 76497, 17698, 10778, 34909, 4183, 17647, 15558, 1500, 2773, 2572, 4419, -722, 655, -8057, -1341, 7116, 6262, 11069, 5641, 10066, 12323, 13821, 9408, 4917, 16494, };
const TfArray<1, int> tensor_dimension16 = { 1, { 48 } };
const TfArray<48, float> quant16_scale = { 48, { 8.6474741692654788e-05, 6.4795298385433853e-05, 2.3460215743398294e-05, 6.9671390519943088e-05, 7.6525539043359458e-05, 9.3232411018107086e-05, 4.9692411266732961e-05, 2.571177901700139e-05, 4.9870017392095178e-05, 9.1518813860602677e-05, 7.7919394243508577e-05, 7.8116099757608026e-05, 1.7250085875275545e-05, 9.1407622676342726e-05, 8.9448716607876122e-05, 2.0279278032830916e-05, 0.00011476233339635655, 7.4325362220406532e-05, 0.00010969596041832119, 8.0151396105065942e-05, 7.9451019701082259e-05, 8.4470710135065019e-05, 0.00013674968795385212, 1.4378919331647921e-05, 4.7889654524624348e-05, 5.3402964113047346e-05, 2.9252190870465711e-05, 9.6697207482066005e-05, 4.4418207835406065e-05, 4.8774421884445474e-05, 0.00018796607037074864, 0.00015299813821911812, 7.7651697210967541e-05, 8.5673964349552989e-05, 0.00010858078167075291, 0.0001129702286561951, 7.135681516956538e-05, 0.00011115595407318324, 8.1886573752854019e-05, 8.4574530774261802e-05, 7.0582529588136822e-05, 8.9358130935579538e-05, 8.0268961028195918e-05, 6.587160169146955e-05, 5.3809962992090732e-05, 7.5362178904470056e-05, 0.00013159800437279046, 5.0090253353118896e-05, } };
const TfArray<48, int> quant16_zero = { 48, { 0,0,0,0,0,0,0,0,0,0,0,0,0,0,0,0,0,0,0,0,0,0,0,0,0,0,0,0,0,0,0,0,0,0,0,0,0,0,0,0,0,0,0,0,0,0,0,0 } };
const TfLiteAffineQuantization quant16 = { (TfLiteFloatArray*)&quant16_scale, (TfLiteIntArray*)&quant16_zero, 0 };
const ALIGN(16) int8_t tensor_data17[1*3*3*48] = { 
  /* [0][0][][] */ 9,-39,8,7,-20,-97,-41,51,-35,-4,-2,9,45,-5,-13,5,97,17,23,2,-1,-25,-71,20,-4,-15,1,-27,-65,74,-13,-111,52,-4,-51,-56,-9,-32,9,-15,-16,38,11,2,-13,63,127,-23, -127,-90,-25,127,-69,75,-97,127,28,15,17,-3,51,20,-3,-42,-30,63,26,7,8,127,11,127,127,-30,-41,40,66,-122,-8,-72,70,-4,-40,-126,25,10,-55,-56,-127,-5,-93,-127,35,52,54,117, -14,-2,10,9,-27,33,38,47,9,-35,4,4,-22,-1,-4,6,-59,39,-68,-27,-5,-31,127,22,-55,3,13,0,16,40,12,12,-2,-14,-36,76,7,3,16,72,26,-22,29,-36,-9,35,-22,-18, 
  /* [0][1][][] */ -12,-21,-29,-1,30,-105,127,-79,-12,10,24,38,127,17,1,-33,-23,-30,27,43,61,-69,40,13,-61,127,-75,-18,127,-95,46,-127,-43,5,-79,17,11,-60,-41,9,120,127,12,-126,-65,-57,-4,85, 96,-127,127,0,127,73,-70,-50,28,127,127,-127,-93,127,127,127,127,127,122,127,127,119,3,5,119,-99,-127,127,37,127,127,0,-127,127,127,127,-127,127,-127,-127,41,36,-127,-38,127,-127,-13,84, 22,31,-41,-4,-53,127,-118,91,107,-74,19,64,-37,11,12,-64,16,10,-127,16,22,-116,-37,-2,73,-13,-21,125,-77,-36,26,-36,-28,17,95,-24,39,-5,-3,-93,112,0,34,45,-57,91,96,-82, 
  /* [0][2][][] */ -4,23,5,-31,-1,-65,-16,-7,6,-1,3,4,-16,-13,-2,-1,-52,16,10,-37,-1,-24,82,-9,-109,4,44,-22,11,0,1,35,-11,-10,-66,32,0,-12,18,52,-27,-2,12,6,-19,19,-14,8, 39,-19,-36,-35,26,36,117,-97,127,-31,-3,7,-72,-22,-22,-71,-19,106,6,25,10,30,-25,-31,-78,59,81,-5,-97,14,-32,-10,-24,-3,-38,2,55,-23,0,127,-117,-4,-10,57,34,54,7,-127, -8,26,3,-20,-17,-2,-7,-49,-24,-22,-6,6,17,-13,-11,14,45,39,-28,-17,-4,-23,-50,-13,21,-24,27,-14,-18,3,-11,18,28,-15,-26,-52,-6,5,28,16,-9,-14,9,14,-16,15,61,-52, 
};
const TfArray<4, int> tensor_dimension17 = { 4, { 1,3,3,48 } };
const TfArray<48, float> quant17_scale = { 48, { 0.011466984637081623, 0.0068491939455270767, 0.038964372128248215, 0.0096028801053762436, 0.010118194855749607, 0.012025364674627781, 0.01104909460991621, 0.013491297140717506, 0.0040691266767680645, 0.011947603896260262, 0.0088744107633829117, 0.058256227523088455, 0.021418219432234764, 0.024283189326524734, 0.016624230891466141, 0.027534320950508118, 0.0080283414572477341, 0.0026996189262717962, 0.009737466461956501, 0.012847123667597771, 0.012270162813365459, 0.0097204167395830154, 0.0037302176933735609, 0.019936889410018921, 0.0078628640621900558, 0.017456000670790672, 0.021134166046977043, 0.0087890084832906723, 0.01316530629992485, 0.014742988161742687, 0.0060848272405564785, 0.0052900868467986584, 0.0059888823889195919, 0.0090022971853613853, 0.006207780446857214, 0.012591524049639702, 0.090766951441764832, 0.014990707859396935, 0.0063424953259527683, 0.0074739279225468636, 0.0072631728835403919, 0.0062136370688676834, 0.012965243309736252, 0.0083917425945401192, 0.014217396266758442, 0.0039466647431254387, 0.0027689298149198294, 0.0077290991321206093, } };
const TfArray<48, int> quant17_zero = { 48, { 0,0,0,0,0,0,0,0,0,0,0,0,0,0,0,0,0,0,0,0,0,0,0,0,0,0,0,0,0,0,0,0,0,0,0,0,0,0,0,0,0,0,0,0,0,0,0,0 } };
const TfLiteAffineQuantization quant17 = { (TfLiteFloatArray*)&quant17_scale, (TfLiteIntArray*)&quant17_zero, 3 };
const ALIGN(16) int32_t tensor_data18[48] = { 5, 16392, -507, -659, 1818, -2107, 3557, -2488, -6461, 162, -11271, -197, 123, -1581, -3729, 6720, 9941, 3337, -6, -6373, -11308, 469, 28253, -8255, -3035, -1217, 6792, -11107, -293, -204, -13039, 14268, 8371, -315, 6063, -143, -7, -698, 15870, 291, 9840, -4224, 4685, 9953, -1360, 14105, -502, 471, };
const TfArray<1, int> tensor_dimension18 = { 1, { 48 } };
const TfArray<48, float> quant18_scale = { 48, { 0.00016509248234797269, 9.8609220003709197e-05, 0.0005609779036603868, 0.00013825460337102413, 0.00014567369362339377, 0.00017313160060439259, 0.0001590760366525501, 0.00019423691264819354, 5.8584035286912695e-05, 0.00017201206355821341, 0.00012776667426805943, 0.00083872664254158735, 0.00030836241785436869, 0.00034960996708832681, 0.00023934239288792014, 0.00039641716284677386, 0.00011558564438018948, 3.8866957766003907e-05, 0.00014019226364325732, 0.00018496262782718986, 0.0001766560017131269, 0.00013994680193718523, 5.3704694437328726e-05, 0.00028703539283014834, 0.00011320323392283171, 0.00025131754227913916, 0.00030427283491007984, 0.0001265371247427538, 0.00018954355618916452, 0.00021225777163635939, 8.7604479631409049e-05, 7.6162446930538863e-05, 8.622314635431394e-05, 0.00012960788444615901, 8.9374661911278963e-05, 0.00018128271040041, 0.0013067900435999036, 0.00021582424233201891, 9.1314177552703768e-05, 0.00010760364239104092, 0.00010456936433911324, 8.9458982984069735e-05, 0.00018666322284843773, 0.00012081760360160843, 0.00020469071750994772, 5.6820925237843767e-05, 3.9864840800873935e-05, 0.00011127739708172157, } };
const TfArray<48, int> quant18_zero = { 48, { 0,0,0,0,0,0,0,0,0,0,0,0,0,0,0,0,0,0,0,0,0,0,0,0,0,0,0,0,0,0,0,0,0,0,0,0,0,0,0,0,0,0,0,0,0,0,0,0 } };
const TfLiteAffineQuantization quant18 = { (TfLiteFloatArray*)&quant18_scale, (TfLiteIntArray*)&quant18_zero, 0 };
const ALIGN(16) int8_t tensor_data19[8*1*1*48] = { 
  /* [0][0][][] */ -42,-48,-19,-65,1,-13,87,83,-97,-85,-36,7,-54,-5,-61,34,-81,11,13,127,57,-26,13,93,69,73,26,3,-89,-55,-78,-56,-50,97,32,-47,28,-31,91,-6,25,6,1,-104,39,-33,-32,-83, 
  /* [1][0][][] */ -14,53,-19,-26,-71,60,-20,-48,-34,71,-19,18,56,45,-49,-5,-20,-120,77,-50,127,9,-62,23,58,-2,-82,63,39,-14,68,34,-32,-18,2,-12,2,107,-15,-26,65,42,-7,14,105,15,-31,57, 
  /* [2][0][][] */ -24,-34,112,4,83,-42,-12,22,-32,-1,-12,45,8,-42,-46,-127,-51,-97,-23,16,-95,21,-39,-34,-48,17,-2,-45,-40,6,-32,-12,-1,-5,26,-5,26,-29,-49,8,35,-31,30,-46,-43,-43,-61,-49, 
  /* [3][0][][] */ 50,16,64,13,18,-33,34,72,-54,-26,44,-24,-67,59,-17,51,67,30,-35,32,-108,-68,127,-2,7,3,-58,-33,-51,65,117,-64,7,-113,-23,44,-11,-79,-13,73,-76,-57,62,-2,-96,-72,58,-8, 
  /* [4][0][][] */ 18,-18,72,-28,5,-9,-4,-3,-59,-6,-24,7,45,-72,40,-98,44,45,-9,-34,11,33,18,9,0,3,58,-16,26,23,-127,-13,-27,-21,5,16,49,-3,36,1,-39,-11,-70,28,-16,-98,2,20, 
  /* [5][0][][] */ 25,-48,60,30,31,18,24,1,-76,-8,-47,29,31,8,13,-44,93,72,-4,-15,86,-60,127,-88,-16,45,3,46,10,11,-31,-47,-18,-46,-37,11,42,26,68,4,-77,28,33,28,48,-17,77,-3, 
  /* [6][0][][] */ -46,54,-127,87,51,21,39,20,-22,-8,62,-78,-97,-18,-29,29,-117,30,-8,94,23,47,-88,-90,-7,-20,26,77,-32,-38,-45,10,39,74,-47,-26,-15,-7,82,4,71,65,-121,-56,-36,119,-55,-37, 
  /* [7][0][][] */ 35,74,-82,17,16,62,123,75,44,78,-99,-3,-44,2,-71,-46,32,39,119,105,84,4,127,25,106,100,-51,99,-71,33,0,-76,18,-67,-23,24,1,101,-64,83,-63,49,-5,-83,81,-22,53,-36, 
};
const TfArray<4, int> tensor_dimension19 = { 4, { 8,1,1,48 } };
const TfArray<8, float> quant19_scale = { 8, { 0.0040236036293208599, 0.0042944713495671749, 0.0063317948952317238, 0.004599645733833313, 0.0057872929610311985, 0.0058249961584806442, 0.0037646577693521976, 0.0036769222933799028, } };
const TfArray<8, int> quant19_zero = { 8, { 0,0,0,0,0,0,0,0 } };
const TfLiteAffineQuantization quant19 = { (TfLiteFloatArray*)&quant19_scale, (TfLiteIntArray*)&quant19_zero, 0 };
const ALIGN(16) int32_t tensor_data20[8] = { 3488, 213, 28342, -6485, 6258, -18312, 2695, -18533, };
const TfArray<1, int> tensor_dimension20 = { 1, { 8 } };
const TfArray<8, float> quant20_scale = { 8, { 7.5812356953974813e-05, 8.0916026490740478e-05, 0.00011930308392038569, 8.6666092101950198e-05, 0.00010904362716246396, 0.00010975402983603999, 7.0933325332589447e-05, 6.9280220486689359e-05, } };
const TfArray<8, int> quant20_zero = { 8, { 0,0,0,0,0,0,0,0 } };
const TfLiteAffineQuantization quant20 = { (TfLiteFloatArray*)&quant20_scale, (TfLiteIntArray*)&quant20_zero, 0 };
const ALIGN(16) int8_t tensor_data21[48*1*1*8] = { 
  /* [0][0][][] */ 71,31,127,-37,65,105,-77,-56, 
  /* [1][0][][] */ 10,-84,-127,5,51,25,30,2, 
  /* [2][0][][] */ -127,-6,-48,-27,55,26,-72,-41, 
  /* [3][0][][] */ 42,71,127,-78,-10,-109,-7,-15, 
  /* [4][0][][] */ -127,22,-51,-25,45,11,-41,-59, 
  /* [5][0][][] */ -99,23,-56,-10,9,38,-81,-127, 
  /* [6][0][][] */ -37,-127,-119,42,99,13,7,46, 
  /* [7][0][][] */ -62,-127,-95,-78,-70,-67,19,86, 
  /* [8][0][][] */ 85,31,-8,-4,94,-78,-127,12, 
  /* [9][0][][] */ -37,53,-53,89,-60,-40,127,-31, 
  /* [10][0][][] */ -24,127,37,64,124,-22,-11,56, 
  /* [11][0][][] */ -80,-34,-24,-10,-85,103,127,-5, 
  /* [12][0][][] */ 67,34,-127,36,-9,-34,-66,-14, 
  /* [13][0][][] */ 62,-31,-69,9,13,-127,-29,-23, 
  /* [14][0][][] */ 8,-77,77,11,127,-117,-65,20, 
  /* [15][0][][] */ -40,-42,-4,127,63,82,-74,27, 
  /* [16][0][][] */ 113,28,-34,18,77,-107,-127,-25, 
  /* [17][0][][] */ 61,127,54,73,46,64,26,-87, 
  /* [18][0][][] */ 34,-11,3,-2,127,3,26,-12, 
  /* [19][0][][] */ 11,127,33,14,-118,19,25,-32, 
  /* [20][0][][] */ -44,19,66,-127,20,35,-17,106, 
  /* [21][0][][] */ -37,74,41,-127,30,47,-12,115, 
  /* [22][0][][] */ -71,-68,-97,18,-127,121,112,-25, 
  /* [23][0][][] */ 99,37,-127,19,15,-48,-72,-18, 
  /* [24][0][][] */ -53,43,7,5,-21,78,-127,101, 
  /* [25][0][][] */ -99,-55,-127,10,-56,-67,66,96, 
  /* [26][0][][] */ 47,-10,-38,-33,108,-14,127,-42, 
  /* [27][0][][] */ 127,-70,25,92,1,31,-20,95, 
  /* [28][0][][] */ 44,57,53,-11,127,-56,52,-30, 
  /* [29][0][][] */ -16,-12,-25,-44,-68,15,127,-32, 
  /* [30][0][][] */ 42,-127,-53,-70,-106,-2,10,-54, 
  /* [31][0][][] */ 10,26,-7,-12,-127,6,-26,-12, 
  /* [32][0][][] */ 44,-60,-60,79,-7,-91,117,-127, 
  /* [33][0][][] */ 53,127,47,36,56,-19,-25,-24, 
  /* [34][0][][] */ -121,-34,127,-5,-22,104,97,12, 
  /* [35][0][][] */ -32,76,127,-13,-64,-70,-39,28, 
  /* [36][0][][] */ -95,6,98,-19,-17,127,77,26, 
  /* [37][0][][] */ -19,-81,-8,-127,-43,-80,70,44, 
  /* [38][0][][] */ 47,-15,87,-57,54,59,-127,8, 
  /* [39][0][][] */ -15,92,-127,-41,-22,3,5,82, 
  /* [40][0][][] */ 65,-52,19,31,11,1,7,127, 
  /* [41][0][][] */ -29,88,127,-4,8,80,-70,26, 
  /* [42][0][][] */ 66,-127,-115,-22,-118,5,15,-95, 
  /* [43][0][][] */ -11,-83,29,-66,127,-43,18,38, 
  /* [44][0][][] */ 4,127,122,20,6,56,-74,8, 
  /* [45][0][][] */ -35,45,12,83,-117,61,-127,20, 
  /* [46][0][][] */ -47,-40,65,48,-127,-123,-31,-1, 
  /* [47][0][][] */ -21,58,46,-105,-127,39,-19,61, 
};
const TfArray<4, int> tensor_dimension21 = { 4, { 48,1,1,8 } };
const TfArray<48, float> quant21_scale = { 48, { 0.0025292246136814356, 0.0034671768080443144, 0.0034849662333726883, 0.0026254083495587111, 0.0024611330591142178, 0.0025560122448951006, 0.0022082943469285965, 0.0017890114104375243, 0.0030802106484770775, 0.0034419354051351547, 0.002302889246493578, 0.002065734937787056, 0.0035482447128742933, 0.0034895273856818676, 0.0030299446079879999, 0.0021236678585410118, 0.0027263874653726816, 0.0025987196713685989, 0.0019383722683414817, 0.0036299892235547304, 0.0033721283543854952, 0.0026414238382130861, 0.0022993627935647964, 0.001972102327272296, 0.0025899095926433802, 0.0026053802575916052, 0.0032574043143540621, 0.003322425065562129, 0.0013174352934584022, 0.003499253187328577, 0.0021508196368813515, 0.0019496026216074824, 0.0023080348037183285, 0.0023109063040465117, 0.0025264741852879524, 0.0029950467869639397, 0.0027099493891000748, 0.003128803800791502, 0.0026724627241492271, 0.0021804023999720812, 0.0034258058294653893, 0.0013083346420899034, 0.0015257812337949872, 0.0032441604416817427, 0.0014585790922865272, 0.0030548383947461843, 0.0027814216446131468, 0.0026598740369081497, } };
const TfArray<48, int> quant21_zero = { 48, { 0,0,0,0,0,0,0,0,0,0,0,0,0,0,0,0,0,0,0,0,0,0,0,0,0,0,0,0,0,0,0,0,0,0,0,0,0,0,0,0,0,0,0,0,0,0,0,0 } };
const TfLiteAffineQuantization quant21 = { (TfLiteFloatArray*)&quant21_scale, (TfLiteIntArray*)&quant21_zero, 0 };
const ALIGN(16) int32_t tensor_data22[48] = { 4328, -2474, 1602, -4392, 7892, -1512, 8453, -7638, 2479, 1337, 4453, 9365, 825, -939, 1366, 9155, -4107, 7318, 11416, 1617, -1717, 5178, -1883, 10149, 4383, 3805, 2471, -1783, 17362, -777, 5348, -4549, -1692, 8410, -2360, 4399, 4017, 1917, 824, 8816, 3747, 16959, -9178, 3250, 14641, 184, 5018, 5616, };
const TfArray<1, int> tensor_dimension22 = { 1, { 48 } };
const TfArray<48, float> quant22_scale = { 48, { 0.0001010905034490861, 0.00013857948943041265, 0.00013929051056038588, 0.00010493487206986174, 9.8368953331373632e-05, 0.00010216118243988603, 8.8263252109754831e-05, 7.150494639063254e-05, 0.00012311285536270589, 0.0001375706196995452, 9.2044116172473878e-05, 8.2565296906977892e-05, 0.00014181969163473696, 0.00013947281695436686, 0.00012110376701457426, 8.4880819485988468e-05, 0.0001089709039661102, 0.00010386815120000392, 7.74747459217906e-05, 0.00014508693129755557, 0.00013478049368131906, 0.00010557499626884237, 9.1903166321571916e-05, 7.8822900832165033e-05, 0.0001035160239553079, 0.00010413437121314928, 0.00013019509788136929, 0.0001327939098700881, 5.265653453534469e-05, 0.00013986155681777745, 8.5966050392016768e-05, 7.7923614298924804e-05, 9.2249778390396386e-05, 9.2364549345802516e-05, 0.0001009805710054934, 0.00011970893683610484, 0.00010831389226950705, 0.00012505507038440555, 0.00010681558342184871, 8.714843716006726e-05, 0.0001369259407510981, 5.2292791224317625e-05, 6.0983904404565692e-05, 0.00012966575741302222, 5.8297904615756124e-05, 0.00012209874694235623, 0.00011117056419607252, 0.00010631242912495509, } };
const TfArray<48, int> quant22_zero = { 48, { 0,0,0,0,0,0,0,0,0,0,0,0,0,0,0,0,0,0,0,0,0,0,0,0,0,0,0,0,0,0,0,0,0,0,0,0,0,0,0,0,0,0,0,0,0,0,0,0 } };
const TfLiteAffineQuantization quant22 = { (TfLiteFloatArray*)&quant22_scale, (TfLiteIntArray*)&quant22_zero, 0 };
const ALIGN(16) int8_t tensor_data23[1*3*3*48] = { 
  /* [0][0][][] */ -95,61,-127,90,-96,63,-47,88,-77,-63,61,-48,61,-79,-47,-52,72,70,86,-109,85,-117,76,-91,-93,-57,62,127,-98,-51,-86,65,72,-92,62,-106,-79,-113,86,-46,-12,-92,115,-103,100,58,-72,-56, -118,90,-71,109,-76,120,-46,107,-116,-88,96,-71,93,-108,-70,-78,98,105,127,-127,109,-124,95,-127,-107,-89,78,126,30,-77,-106,100,99,-127,92,-115,-95,-127,109,-74,-101,99,127,-116,-35,100,-89,-89, -56,48,-2,25,-13,63,-21,38,-55,-33,41,-27,39,-45,-26,-13,38,45,65,-38,33,-54,35,-46,-75,-35,26,24,95,-31,-56,28,33,-81,36,-33,-28,-37,40,-42,-112,-36,36,-47,-69,54,-25,-58, 
  /* [0][1][][] */ -100,88,-72,110,-72,109,-112,100,-98,-95,79,-83,84,-99,-86,-96,98,87,-45,-98,101,-122,100,-79,-111,-87,92,108,-127,-86,-100,89,97,34,91,-117,-106,-110,103,-81,-112,-108,108,-120,127,67,-109,-91, -127,127,-110,127,-127,127,-127,127,-127,-127,127,-127,127,-127,-127,-127,127,127,-52,-113,127,-127,127,-118,-127,-127,127,121,18,-127,-127,127,127,44,127,-127,-127,-108,127,-127,-127,127,119,-127,-56,127,-127,-127, -73,71,-84,39,-53,33,-57,54,-54,-39,52,-54,53,-55,-49,-15,64,53,-39,-27,33,-56,44,-52,-112,-51,49,46,105,-59,-66,47,44,14,50,-47,-36,-23,54,-58,-54,-66,30,-62,-88,68,-26,-72, 
  /* [0][2][][] */ -42,40,-4,48,-31,48,-55,32,-47,-40,23,-45,32,-54,-37,-50,51,33,-70,-21,25,-35,34,-32,-50,-41,35,0,-77,-48,-35,34,36,52,44,-61,-43,-47,28,-38,-104,-53,37,-85,73,28,-59,-44, -66,60,-82,59,-63,37,-64,45,-62,-51,44,-66,49,-68,-59,-50,70,48,-88,-18,28,-33,41,-49,-60,-58,47,32,3,-76,-59,46,42,71,58,-65,-55,-42,33,-52,-59,67,38,-107,-32,54,-63,-62, -25,34,-69,13,-34,-5,-31,25,-14,-11,20,-28,22,-25,-25,8,38,18,-61,5,7,7,13,-12,-39,-19,23,16,60,-23,-19,12,13,42,23,-15,-5,-2,16,-18,6,-24,0,-32,-50,34,-14,-40, 
};
const TfArray<4, int> tensor_dimension23 = { 4, { 1,3,3,48 } };
const TfArray<48, float> quant23_scale = { 48, { 0.003623301163315773, 0.0055042109452188015, 0.0026752811390906572, 0.0049092071130871773, 0.0046571558341383934, 0.0036765567492693663, 0.0026864907704293728, 0.011106635443866253, 0.0044535240158438683, 0.0029009848367422819, 0.0028912737034261227, 0.0046508032828569412, 0.00341035146266222, 0.0042140050791203976, 0.0020600559655576944, 0.0037795817479491234, 0.0046362201683223248, 0.0029093986377120018, 0.0065213199704885483, 0.0020548617467284203, 0.0031895628198981285, 0.0025847735814750195, 0.0042814654298126698, 0.0047169257886707783, 0.0027802092954516411, 0.003271373687312007, 0.0029049741569906473, 0.0019315944518893957, 0.010549647733569145, 0.0044596614316105843, 0.0025508275721222162, 0.013215333223342896, 0.0055874548852443695, 0.0078212376683950424, 0.0045818369835615158, 0.0030544328037649393, 0.0045189014635980129, 0.0025473118294030428, 0.0036615387070924044, 0.0045985993929207325, 0.002291692653670907, 0.0071913530118763447, 0.0074238330125808716, 0.0026475167833268642, 0.0071259327232837677, 0.0030403039418160915, 0.0021369541063904762, 0.0025552718434482813, } };
const TfArray<48, int> quant23_zero = { 48, { 0,0,0,0,0,0,0,0,0,0,0,0,0,0,0,0,0,0,0,0,0,0,0,0,0,0,0,0,0,0,0,0,0,0,0,0,0,0,0,0,0,0,0,0,0,0,0,0 } };
const TfLiteAffineQuantization quant23 = { (TfLiteFloatArray*)&quant23_scale, (TfLiteIntArray*)&quant23_zero, 3 };
const ALIGN(16) int32_t tensor_data24[48] = { 20297, -1616, 27546, -150, 21527, -2531, 46863, 351, 15472, 45953, 2656, 32782, 387, 17755, 50841, 31913, -99, 1077, 3183, 65543, -220, 27879, 984, 23532, 24828, 46839, -346, -1395, -2620, 19705, 30476, -114, -399, 119, 35, 23209, 15127, 43225, 4107, 23470, 38583, 2087, 1847, 23215, 674, 607, 56382, 34076, };
const TfArray<1, int> tensor_dimension24 = { 1, { 48 } };
const TfArray<48, float> quant24_scale = { 48, { 5.9007375966757536e-05, 8.9638990175444633e-05, 4.3568368710111827e-05, 7.9949037171900272e-05, 7.5844247476197779e-05, 5.9874673752347007e-05, 4.3750926124630496e-05, 0.00018087743956129998, 7.2527996962890029e-05, 4.7244073357433081e-05, 4.708592314273119e-05, 7.5740790634881705e-05, 5.5539378081448376e-05, 6.8627305154222995e-05, 3.3549102226970717e-05, 6.155249138828367e-05, 7.5503296102397144e-05, 4.738109782920219e-05, 0.00010620314424159005, 3.3464511943748221e-05, 5.1943719881819561e-05, 4.2094405216630548e-05, 6.9725931098219007e-05, 7.6817632361780852e-05, 4.5277181925484911e-05, 5.3276053222361952e-05, 4.7309040382970124e-05, 3.1457038858206943e-05, 0.0001718066050671041, 7.2627946792636067e-05, 4.1541577957104892e-05, 0.00021521869348362088, 9.0994661150034517e-05, 0.00012737300130538642, 7.4617637437768281e-05, 4.9743055569706485e-05, 7.3592702392488718e-05, 4.1484319808660075e-05, 5.9630096075125039e-05, 7.4890624091494828e-05, 3.732142795342952e-05, 0.00011711499246302992, 0.0001209010515594855, 4.3116211600136012e-05, 0.00011604958854150027, 4.9512960686115548e-05, 3.4801429137587547e-05, 4.1613955545471981e-05, } };
const TfArray<48, int> quant24_zero = { 48, { 0,0,0,0,0,0,0,0,0,0,0,0,0,0,0,0,0,0,0,0,0,0,0,0,0,0,0,0,0,0,0,0,0,0,0,0,0,0,0,0,0,0,0,0,0,0,0,0 } };
const TfLiteAffineQuantization quant24 = { (TfLiteFloatArray*)&quant24_scale, (TfLiteIntArray*)&quant24_zero, 0 };
const ALIGN(16) int8_t tensor_data25[16*1*1*48] = { 
  /* [0][0][][] */ 25,39,19,-33,68,66,-41,57,-15,113,4,45,-36,36,-15,44,33,80,42,-62,-69,74,-8,50,57,45,38,52,-47,-48,-8,84,-27,11,-69,51,49,-127,-33,15,13,-32,61,-7,-8,-55,-60,-17, 
  /* [1][0][][] */ -51,2,-80,-44,10,90,-57,19,-11,-34,-44,33,59,-17,-28,-25,-28,-33,-5,20,-66,45,-104,-46,-52,-39,48,68,-25,-29,42,-42,12,-59,-34,53,13,-59,127,-36,-23,29,-46,-15,33,52,31,19, 
  /* [2][0][][] */ 3,4,59,-34,-18,-80,18,24,101,76,-66,13,110,-49,127,82,-70,-22,-31,31,83,-80,-33,-97,12,-37,36,-70,40,44,-43,14,33,-27,60,42,-66,11,1,-29,32,29,66,-16,21,-86,95,-56, 
  /* [3][0][][] */ 40,3,-23,-29,33,112,17,-18,43,-49,23,-25,-52,8,11,42,-44,-68,37,-124,-10,-1,-27,-17,-41,92,127,64,-12,-42,27,41,61,-30,96,35,-44,-57,1,40,27,15,-16,0,24,20,-10,-23, 
  /* [4][0][][] */ 101,-9,6,-50,90,86,51,12,70,-18,-108,31,43,-21,16,-16,-101,-125,-27,-99,-22,24,-40,-34,-86,127,-105,122,-59,-56,29,83,40,-52,16,-33,-8,13,-28,29,-52,-10,-5,53,-51,107,-32,-56, 
  /* [5][0][][] */ 0,-4,-55,6,-13,54,18,-26,63,53,39,89,52,-22,32,-3,-38,127,-17,36,10,-1,-65,-14,35,0,-63,-34,-14,29,18,-17,-38,3,41,16,-45,7,-83,4,87,-19,26,47,-16,8,-38,32, 
  /* [6][0][][] */ 61,13,17,71,6,-28,105,-56,2,68,127,105,42,47,-51,60,39,-43,-78,90,49,-63,-44,59,-87,93,88,-8,115,52,-32,-2,98,-65,-122,-7,102,34,0,2,14,61,58,-32,67,122,34,-4, 
  /* [7][0][][] */ -96,-5,-23,27,-60,-58,25,51,80,114,-56,-73,-99,11,-16,-14,-79,100,1,119,-49,42,24,39,-19,-94,-33,-82,30,40,-7,9,-17,12,14,-18,5,-59,127,12,6,44,24,-14,56,70,-30,-1, 
  /* [8][0][][] */ -10,-90,51,-63,60,-59,71,-40,-27,-115,28,10,-33,3,29,29,-2,7,-44,101,4,36,-21,27,66,-10,-61,-35,-127,-23,-55,-113,9,-64,2,83,-7,33,108,17,16,-2,69,116,-10,-68,-43,79, 
  /* [9][0][][] */ 20,-36,23,-64,41,82,-38,49,18,-36,-36,-17,20,-47,112,-16,7,-115,39,42,-70,40,56,-38,-24,-79,-25,79,56,74,-41,-26,-51,32,-8,127,-26,-44,-54,-24,-28,0,36,106,59,82,-67,16, 
  /* [10][0][][] */ -12,19,-23,-8,20,28,-64,-43,49,38,62,-7,-34,-9,49,-49,-60,127,0,49,1,-10,18,28,-42,44,4,92,36,7,-34,-10,71,9,-8,27,-8,-46,-38,21,-79,-2,26,-15,17,44,30,33, 
  /* [11][0][][] */ -29,46,-19,35,30,56,1,8,18,17,-127,-70,71,19,-7,-45,-2,26,-44,-46,-11,-7,105,5,47,11,-17,32,-7,26,-9,49,29,-4,-49,1,42,79,100,19,34,-30,63,-1,-55,-19,84,4, 
  /* [12][0][][] */ -66,-2,34,21,-63,-58,3,2,-38,-34,-127,16,71,-98,19,33,49,105,85,-121,-32,43,-44,-82,-1,-16,36,-32,8,16,-18,74,67,80,38,-34,-56,-28,32,1,-33,17,60,-4,36,-15,-39,-36, 
  /* [13][0][][] */ -56,-117,-46,-104,11,25,60,13,-123,27,121,-64,56,44,127,6,119,25,-6,-98,77,-80,121,1,-79,7,-27,13,-43,-100,-113,17,48,-28,-75,64,31,-57,81,-77,-7,57,71,44,60,-29,107,-66, 
  /* [14][0][][] */ 67,20,-55,5,-42,16,-88,-25,-31,60,56,47,-12,-64,14,-46,52,-117,23,11,89,-61,24,-5,-11,127,-89,3,-59,-28,-93,2,127,44,89,-22,-82,12,-23,58,-16,-48,108,-26,-57,-45,-58,54, 
  /* [15][0][][] */ -64,14,41,20,95,4,2,34,21,78,-17,55,55,-15,-35,-18,13,38,1,-38,28,-37,-49,-54,52,-64,-38,65,-32,7,15,8,-60,0,127,-5,-88,16,59,-15,-46,-19,20,-3,-33,-33,-10,9, 
};
const TfArray<4, int> tensor_dimension25 = { 4, { 16,1,1,48 } };
const TfArray<16, float> quant25_scale = { 16, { 0.006117683369666338, 0.0063198278658092022, 0.0057736113667488098, 0.0065434379503130913, 0.0040667885914444923, 0.006243397481739521, 0.0043571465648710728, 0.006647252943366766, 0.0043322262354195118, 0.0036325417459011078, 0.008143705315887928, 0.0065707270987331867, 0.0055289301089942455, 0.0040980037301778793, 0.0057219606824219227, 0.0054624998010694981, } };
const TfArray<16, int> quant25_zero = { 16, { 0,0,0,0,0,0,0,0,0,0,0,0,0,0,0,0 } };
const TfLiteAffineQuantization quant25 = { (TfLiteFloatArray*)&quant25_scale, (TfLiteIntArray*)&quant25_zero, 0 };
const ALIGN(16) int32_t tensor_data26[16] = { -8325, 21258, -38607, 3425, 26472, -30096, -80984, -17767, -10156, 14057, -32017, -25319, 12546, -23440, -5773, -5401, };
const TfArray<1, int> tensor_dimension26 = { 1, { 16 } };
const TfArray<16, float> quant26_scale = { 16, { 7.2871443990152329e-05, 7.5279305747244507e-05, 6.877299165353179e-05, 7.7942866482771933e-05, 4.8441990657011047e-05, 7.4368901550769806e-05, 5.1900620746891946e-05, 7.9179466411005706e-05, 5.160377622814849e-05, 4.3269410525681451e-05, 9.7004616691265255e-05, 7.8267919889185578e-05, 6.5858446760103106e-05, 4.8813810280989856e-05, 6.8157751229591668e-05, 6.5067149989772588e-05, } };
const TfArray<16, int> quant26_zero = { 16, { 0,0,0,0,0,0,0,0,0,0,0,0,0,0,0,0 } };
const TfLiteAffineQuantization quant26 = { (TfLiteFloatArray*)&quant26_scale, (TfLiteIntArray*)&quant26_zero, 0 };
const ALIGN(16) int8_t tensor_data27[96*1*1*16] = { 
  /* [0][0][][] */ 42,6,2,56,-127,-22,95,49,59,85,-24,40,15,1,34,81, 
  /* [1][0][][] */ -21,29,-90,3,127,100,-3,0,-28,17,-58,33,-52,85,-53,-38, 
  /* [2][0][][] */ -40,62,78,-3,63,86,7,36,38,-7,40,-18,54,-127,-8,11, 
  /* [3][0][][] */ 127,-33,23,3,34,32,-13,14,38,36,-60,-23,-41,51,-30,55, 
  /* [4][0][][] */ -80,-19,7,38,-116,-9,-88,-30,-9,32,-10,-56,-21,34,-42,127, 
  /* [5][0][][] */ -94,15,33,13,127,31,6,8,-48,34,-26,13,-67,54,-96,-37, 
  /* [6][0][][] */ -127,25,-38,29,-10,-71,72,16,7,-31,-52,36,11,-1,-42,12, 
  /* [7][0][][] */ -1,105,55,-95,68,52,127,8,47,1,-3,45,89,26,-30,2, 
  /* [8][0][][] */ -35,-26,-72,55,-56,87,-47,-73,27,-41,88,42,127,48,-102,9, 
  /* [9][0][][] */ -25,-127,-18,81,-41,-63,-13,58,51,46,8,66,-76,14,-8,-35, 
  /* [10][0][][] */ -39,-51,-109,55,-126,127,61,-89,12,-74,66,-43,38,111,-84,87, 
  /* [11][0][][] */ -43,-111,-38,30,-10,93,35,-7,19,13,44,-96,16,116,-119,127, 
  /* [12][0][][] */ -30,-95,-81,102,-101,-127,18,65,78,67,-35,101,-5,-64,-24,-8, 
  /* [13][0][][] */ -64,-23,-33,-4,-14,1,30,16,-17,127,-10,-20,38,32,15,-12, 
  /* [14][0][][] */ -120,-27,-52,-51,-23,94,-23,-106,127,-67,74,-2,95,-59,-93,-91, 
  /* [15][0][][] */ 4,-127,96,-56,-56,-38,6,58,17,-50,-92,-38,85,-42,-27,-49, 
  /* [16][0][][] */ -23,-34,25,-38,31,25,-19,-25,64,-127,38,-18,-6,1,-76,-92, 
  /* [17][0][][] */ -21,6,29,-63,22,1,-36,3,95,-63,27,71,115,-80,-29,-127, 
  /* [18][0][][] */ 74,1,-38,-124,6,-27,125,-50,28,62,-9,64,-8,77,-9,-127, 
  /* [19][0][][] */ -34,-31,-31,-64,-122,38,-16,-2,31,-52,29,-127,-13,-20,-17,-3, 
  /* [20][0][][] */ 19,74,70,-94,64,-5,-51,91,-109,-127,36,-86,-39,110,-18,-16, 
  /* [21][0][][] */ 12,-109,-127,-5,98,39,88,99,-82,-91,-23,18,111,-107,-32,26, 
  /* [22][0][][] */ 59,-9,81,-11,3,7,66,27,25,127,32,28,-3,1,116,-6, 
  /* [23][0][][] */ -119,-72,-24,64,67,46,18,9,-5,10,-1,-92,-2,68,60,127, 
  /* [24][0][][] */ 17,-13,38,32,17,-93,14,-60,22,127,-115,77,-20,-64,80,-71, 
  /* [25][0][][] */ 127,-63,110,121,44,11,-15,35,-116,80,54,-58,-10,25,74,-16, 
  /* [26][0][][] */ -22,25,11,41,-57,115,-17,38,-60,-36,-81,33,2,20,46,-127, 
  /* [27][0][][] */ 35,-5,-8,-48,-47,3,-81,12,-105,-24,-67,-42,-74,46,-21,127, 
  /* [28][0][][] */ -68,15,23,-1,26,-13,-127,2,-3,-32,-3,-11,11,-50,-73,-33, 
  /* [29][0][][] */ -24,-115,-25,94,-27,10,127,6,78,58,-112,65,33,-27,-51,75, 
  /* [30][0][][] */ 42,-52,-63,7,-127,28,55,-34,12,-3,2,-25,-16,49,-10,73, 
  /* [31][0][][] */ -127,-11,8,95,-35,8,-50,-1,-27,-53,13,-29,-24,-53,-19,97, 
  /* [32][0][][] */ -127,-81,-92,-5,-94,-51,3,-14,118,55,-56,-66,39,43,33,-16, 
  /* [33][0][][] */ -8,8,-91,41,-127,-97,52,-8,-113,19,-56,-58,-22,100,74,66, 
  /* [34][0][][] */ 37,62,6,39,-69,-48,33,11,22,-127,-20,38,-27,-1,45,92, 
  /* [35][0][][] */ 40,-5,-66,-15,-127,15,89,-33,26,49,-14,-11,21,71,32,64, 
  /* [36][0][][] */ -5,-5,-56,58,127,-22,44,69,-86,16,-84,-81,29,-19,10,29, 
  /* [37][0][][] */ -123,53,-2,-75,46,-94,-41,-35,-9,-24,-26,51,60,-80,16,-127, 
  /* [38][0][][] */ 39,107,31,-75,-107,-63,-127,-57,-44,-73,50,67,-74,-102,84,-6, 
  /* [39][0][][] */ 0,-52,7,72,13,80,85,-50,-25,50,17,-25,-12,127,53,116, 
  /* [40][0][][] */ 104,48,79,96,-59,-57,-2,26,-80,63,-8,-16,-44,-25,127,2, 
  /* [41][0][][] */ -22,-11,10,54,-94,116,2,52,-56,29,-112,11,19,33,50,-127, 
  /* [42][0][][] */ 9,-102,26,-18,127,32,64,12,-26,-100,-95,-26,-15,-12,-10,36, 
  /* [43][0][][] */ -39,-96,-43,7,122,16,-6,95,-71,-66,-127,-85,117,-11,-62,58, 
  /* [44][0][][] */ -39,-56,-80,-96,35,80,70,15,-36,-127,-68,74,-45,56,28,109, 
  /* [45][0][][] */ -4,-57,-70,-9,-127,69,-25,-59,60,-49,29,-49,1,14,-38,48, 
  /* [46][0][][] */ 29,-83,-14,4,85,-84,-17,94,-5,-27,36,64,-49,-56,56,-127, 
  /* [47][0][][] */ -79,-29,-12,87,-7,8,37,42,-2,127,82,88,-42,83,-8,102, 
  /* [48][0][][] */ 43,-13,-80,-88,33,-65,8,53,45,-77,-3,24,-58,6,-42,-127, 
  /* [49][0][][] */ 55,36,10,32,-11,-25,48,44,-31,127,-40,36,-37,-28,73,84, 
  /* [50][0][][] */ 6,2,13,11,-127,-18,-11,-47,54,20,22,52,-22,-62,17,-2, 
  /* [51][0][][] */ 16,-6,-11,-127,-25,99,49,-52,10,6,35,-51,71,77,-28,15, 
  /* [52][0][][] */ 23,-22,-1,-83,81,-111,-10,-34,39,-1,127,-56,37,6,-33,95, 
  /* [53][0][][] */ -46,-63,50,-24,-40,-127,19,-101,-4,91,-95,80,-33,-18,30,-84, 
  /* [54][0][][] */ 62,66,44,-16,-127,-41,-90,-102,-7,12,49,69,-72,-49,61,10, 
  /* [55][0][][] */ 15,12,-35,72,-35,25,38,-19,5,127,20,58,-2,1,-1,45, 
  /* [56][0][][] */ 43,-112,-75,83,-79,43,-7,62,127,11,59,53,-31,-32,53,90, 
  /* [57][0][][] */ 48,20,104,-92,96,-6,-14,-2,95,-36,7,127,63,-58,103,-71, 
  /* [58][0][][] */ 79,-59,13,-70,35,17,-3,127,52,92,-6,63,51,16,85,-3, 
  /* [59][0][][] */ -45,39,32,-45,2,-96,-3,9,4,23,-120,-103,-127,-59,79,-16, 
  /* [60][0][][] */ 39,-24,23,17,10,-19,12,-52,24,127,-11,63,-10,-26,-18,-32, 
  /* [61][0][][] */ 65,63,15,-24,-86,-127,-19,-61,-63,-16,-23,19,-68,-45,86,86, 
  /* [62][0][][] */ -25,87,-39,40,-55,127,-46,26,-59,8,-40,32,-31,41,60,-88, 
  /* [63][0][][] */ 31,-7,-67,-127,-17,-47,80,-13,-2,-95,-30,33,-39,72,34,-32, 
  /* [64][0][][] */ -39,18,13,-25,56,-66,29,85,-127,-15,-78,-36,-29,86,63,62, 
  /* [65][0][][] */ -71,-13,-42,-20,73,41,-46,-79,-127,-54,9,-27,-119,111,-60,49, 
  /* [66][0][][] */ -17,58,-10,31,-45,127,-22,21,-61,20,-30,45,-30,51,49,-84, 
  /* [67][0][][] */ 18,-26,-42,-30,14,-88,66,-98,-4,30,8,121,-63,-30,-24,-127, 
  /* [68][0][][] */ 9,-127,-26,73,-9,3,23,86,40,39,54,11,-69,32,-15,-11, 
  /* [69][0][][] */ 10,88,88,-120,55,6,-33,103,36,106,61,92,100,-99,30,-127, 
  /* [70][0][][] */ 46,28,46,-37,97,7,-99,-51,-127,-90,-3,47,-33,64,-105,-7, 
  /* [71][0][][] */ -22,-73,30,-45,72,-13,39,32,-86,83,-127,-47,16,92,-21,49, 
  /* [72][0][][] */ 14,17,67,13,-61,-28,-117,-71,-8,71,-27,65,29,117,-127,-6, 
  /* [73][0][][] */ -1,-37,-18,-41,41,-115,32,-49,75,90,109,-14,21,-22,-73,127, 
  /* [74][0][][] */ 6,2,-28,80,-81,-3,92,23,78,62,28,113,127,22,-58,7, 
  /* [75][0][][] */ -30,42,-26,35,-51,127,-18,20,-35,29,-38,43,-20,49,29,-67, 
  /* [76][0][][] */ -74,90,-58,47,-113,-7,-9,26,52,46,-45,-46,51,-50,-127,42, 
  /* [77][0][][] */ 114,114,-122,127,79,77,77,52,46,11,106,-39,83,36,66,24, 
  /* [78][0][][] */ 14,-37,0,-62,70,-124,32,-55,50,48,127,-26,6,-17,-42,124, 
  /* [79][0][][] */ -40,58,3,22,-2,-46,-36,-4,-127,-6,52,8,105,42,-78,-43, 
  /* [80][0][][] */ -79,22,80,-1,67,48,-5,-127,-77,61,-69,-47,-8,-94,30,59, 
  /* [81][0][][] */ 87,73,-19,-2,34,-30,76,112,-105,127,-65,-40,-45,24,115,115, 
  /* [82][0][][] */ 55,118,-34,-76,-13,-53,117,-106,28,22,-70,74,127,-21,72,-52, 
  /* [83][0][][] */ 6,-35,19,27,2,27,-31,-101,68,-35,97,15,36,-67,-54,-127, 
  /* [84][0][][] */ -127,-86,-40,-21,-4,98,92,2,88,72,101,103,59,88,-81,8, 
  /* [85][0][][] */ 119,4,100,-82,75,-7,-26,90,17,126,-61,10,-41,66,127,20, 
  /* [86][0][][] */ -79,71,-34,-1,33,87,20,18,94,42,127,-22,-26,64,-10,-23, 
  /* [87][0][][] */ 10,-58,25,-45,44,-127,27,-31,45,-10,65,-37,34,-42,-40,71, 
  /* [88][0][][] */ -82,58,42,-6,113,-28,37,22,-59,-72,103,-71,74,116,105,-127, 
  /* [89][0][][] */ -24,37,-13,28,-33,127,-17,33,-45,11,-40,22,-7,58,29,-86, 
  /* [90][0][][] */ 52,-80,25,23,127,-3,49,31,-9,-95,-118,-24,-13,-9,-59,30, 
  /* [91][0][][] */ -10,69,-24,-42,1,-82,-102,36,-83,23,-115,-127,-122,-88,-6,17, 
  /* [92][0][][] */ 68,46,63,35,-127,-90,17,9,-21,31,-28,-33,-23,-81,26,-3, 
  /* [93][0][][] */ -4,-127,-112,67,-44,-58,-18,116,100,70,7,68,-64,62,-16,-31, 
  /* [94][0][][] */ 104,11,127,-25,25,-36,15,37,29,88,-2,58,14,7,123,-13, 
  /* [95][0][][] */ -58,-45,-22,-23,127,-7,42,76,-33,-9,-102,-55,18,10,-64,28, 
};
const TfArray<4, int> tensor_dimension27 = { 4, { 96,1,1,16 } };
const TfArray<96, float> quant27_scale = { 96, { 0.0044465991668403149, 0.0020991421770304441, 0.0051674819551408291, 0.0041353912092745304, 0.0023946147412061691, 0.0011287524830549955, 0.0042726928368210793, 0.0024831276386976242, 0.0012572625419124961, 0.0029335010331124067, 0.00084900140063837171, 0.0019940461497753859, 0.0030044633895158768, 0.0071949055418372154, 0.0017012638272717595, 0.0026215235702693462, 0.0032666088081896305, 0.0023572077043354511, 0.0026105977594852448, 0.0011980562703683972, 0.0043088197708129883, 0.0015745896380394697, 0.0027541343588382006, 0.0026228870265185833, 0.001374558312818408, 0.0025270751211792231, 0.0037721302360296249, 0.0036644467618316412, 0.002397679490968585, 0.0040529211983084679, 0.0028309328481554985, 0.0022260560654103756, 0.0041699865832924843, 0.0012755565112456679, 0.0026765426155179739, 0.0029050162993371487, 0.0026202495209872723, 0.0037243012338876724, 0.0020768451504409313, 0.0031113279983401299, 0.00095722038531675935, 0.0034919441677629948, 0.0030025853775441647, 0.0022754780948162079, 0.0022648873273283243, 0.0013873043935745955, 0.0017467391444370151, 0.0018703904934227467, 0.0043566236272454262, 0.0034622969105839729, 0.0040307631716132164, 0.0021145599894225597, 0.0035508205182850361, 0.0022458429448306561, 0.0017518693348392844, 0.0066284802742302418, 0.0026137428358197212, 0.00095819390844553709, 0.0023588279727846384, 0.0030811091419309378, 0.0029223409947007895, 0.0015183858340606093, 0.0033665494993329048, 0.0042837569490075111, 0.00092868821229785681, 0.0011402255622670054, 0.0045291697606444359, 0.0027819671668112278, 0.0021009980700910091, 0.0017250985838472843, 0.0042705866508185863, 0.0023349446710199118, 0.0026104634162038565, 0.0029173118527978659, 0.004030122421681881, 0.0041274745017290115, 0.0030836930964142084, 0.0015765128191560507, 0.0029845882672816515, 0.0026610209606587887, 0.0026569291949272156, 0.0023499005474150181, 0.0018104395130649209, 0.0010551078012213111, 0.0026857824996113777, 0.0011594153475016356, 0.0022538036573678255, 0.0045176316052675247, 0.0043139583431184292, 0.0044242222793400288, 0.0030706741381436586, 0.0014597718836739659, 0.0029600935522466898, 0.0022838898003101349, 0.0016543533420190215, 0.0022522832732647657, } };
const TfArray<96, int> quant27_zero = { 96, { 0,0,0,0,0,0,0,0,0,0,0,0,0,0,0,0,0,0,0,0,0,0,0,0,0,0,0,0,0,0,0,0,0,0,0,0,0,0,0,0,0,0,0,0,0,0,0,0,0,0,0,0,0,0,0,0,0,0,0,0,0,0,0,0,0,0,0,0,0,0,0,0,0,0,0,0,0,0,0,0,0,0,0,0,0,0,0,0,0,0,0,0,0,0,0,0 } };
const TfLiteAffineQuantization quant27 = { (TfLiteFloatArray*)&quant27_scale, (TfLiteIntArray*)&quant27_zero, 0 };
const ALIGN(16) int32_t tensor_data28[96] = { 2995, 15336, 692, 3891, 11507, 35045, 357, 5490, 29842, -2519, 42307, 10373, 4466, 996, 14046, 923, 7669, 11233, -716, 31679, 2415, 20563, -3838, 4162, -22896, 3181, 5562, 4116, 15241, 2690, 8656, 10351, 4204, 28748, 8189, 8961, 9544, 4808, 10238, 5698, 41993, 3349, 5319, 3656, 7148, 25810, 17185, 17320, 2708, -2669, 4144, 14213, 5746, -7692, 18076, 334, 5459, 38884, 3508, 3918, 6328, 23793, 7828, -660, 43906, 33607, 3926, 9111, 15646, 12577, 4836, 4182, -9304, 9303, 3962, 6399, 1088, 21901, 8260, 13329, 7010, 2917, 11795, 38263, -125, 27236, 13166, 3843, -1341, 5415, 2881, 25231, 7312, 7742, 14201, 12024, };
const TfArray<1, int> tensor_dimension28 = { 1, { 96 } };
const TfArray<96, float> quant28_scale = { 96, { 0.00010495633614482358, 4.9547590606380254e-05, 0.00012197186151752248, 9.7610667580738664e-05, 5.652184336213395e-05, 2.6642770535545424e-05, 0.00010085149551741779, 5.8611080021364614e-05, 2.9676088161068037e-05, 6.9241570599842817e-05, 2.00396007130621e-05, 4.7066929255379364e-05, 7.0916546974331141e-05, 0.00016982661327347159, 4.0156173781724647e-05, 6.1877741245552897e-05, 7.7104159572627395e-05, 5.5638898629695177e-05, 6.161985220387578e-05, 2.8278598620090634e-05, 0.00010170422319788486, 3.716619175975211e-05, 6.5007850935216993e-05, 6.1909922806080431e-05, 3.2444706448586658e-05, 5.9648402384482324e-05, 8.9036351710092276e-05, 8.6494619608856738e-05, 5.6594184570712969e-05, 9.5664065156597644e-05, 6.6820583015214652e-05, 5.2543229685397819e-05, 9.842724830377847e-05, 3.0107894417596981e-05, 6.3176390540320426e-05, 6.8569228460546583e-05, 6.1847669712733477e-05, 8.7907406850717962e-05, 4.9021295126294717e-05, 7.3438954132143408e-05, 2.2593972971662879e-05, 8.2422913692425936e-05, 7.0872221840545535e-05, 5.3709773055743426e-05, 5.3459792979992926e-05, 3.2745560019975528e-05, 4.1229563066735864e-05, 4.4148197048343718e-05, 0.00010283257870469242, 8.1723126641009003e-05, 9.5141054771374911e-05, 4.9911508540390059e-05, 8.3812614320777357e-05, 5.3010273404652253e-05, 4.1350653191329911e-05, 0.00015645686653442681, 6.1694081523455679e-05, 2.2616952264797874e-05, 5.5677141062915325e-05, 7.2725670179352164e-05, 6.897815183037892e-05, 3.583957368391566e-05, 7.9463134170509875e-05, 0.00010111265146406367, 2.1920506696915254e-05, 2.6913578039966524e-05, 0.00010690531053114682, 6.5664804424159229e-05, 4.9591395509196445e-05, 4.0718765376368538e-05, 0.00010080177889904007, 5.5113407142926008e-05, 6.1616679886355996e-05, 6.8859444581903517e-05, 9.5125928055495024e-05, 9.7423799161333591e-05, 7.2786664532031864e-05, 3.7211586459307e-05, 7.044742233119905e-05, 6.2810024246573448e-05, 6.2713443185202777e-05, 5.5466422054450959e-05, 4.2733128793770447e-05, 2.4904482415877283e-05, 6.3394487369805574e-05, 2.7366528229322284e-05, 5.3198178648017347e-05, 0.00010663296416169032, 0.0001018255134113133, 0.00010442815255373716, 7.2479371738154441e-05, 3.445606489549391e-05, 6.9869252911303192e-05, 5.3908323025098071e-05, 3.9048911276040599e-05, 5.3162289987085387e-05, } };
const TfArray<96, int> quant28_zero = { 96, { 0,0,0,0,0,0,0,0,0,0,0,0,0,0,0,0,0,0,0,0,0,0,0,0,0,0,0,0,0,0,0,0,0,0,0,0,0,0,0,0,0,0,0,0,0,0,0,0,0,0,0,0,0,0,0,0,0,0,0,0,0,0,0,0,0,0,0,0,0,0,0,0,0,0,0,0,0,0,0,0,0,0,0,0,0,0,0,0,0,0,0,0,0,0,0,0 } };
const TfLiteAffineQuantization quant28 = { (TfLiteFloatArray*)&quant28_scale, (TfLiteIntArray*)&quant28_zero, 0 };
const ALIGN(16) int8_t tensor_data29[1*3*3*96] = { 
  /* [0][0][][] */ -43,-9,-1,-31,91,-8,32,-10,-7,-3,-10,-25,-28,1,-4,-18,-16,3,-5,-17,-3,27,14,45,-1,-17,-27,-2,17,-1,26,4,-15,1,-3,-29,-2,-71,-47,2,1,-7,37,-25,-26,37,-56,-15,-22,7,-8,52,-65,3,35,-11,0,-10,4,-18,-8,-14,-10,-41,-19,-24,-43,-33,-13,26,-4,-1,30,4,0,3,-16,6,127,-23,-127,10,-102,-19,-26,-18,21,13,-31,-17,10,-34,-5,32,-23,9, -18,36,46,-67,-40,-3,127,-54,-1,-14,-35,10,-64,2,-89,78,-10,72,73,-31,-5,127,85,124,31,-1,46,64,127,37,127,-31,-123,-19,-85,-35,-22,-100,127,-54,-26,-127,-12,-44,62,-32,-33,-4,41,2,22,127,-94,34,-79,-5,-80,-6,-7,24,-11,-127,-125,-52,-44,-2,-7,-93,-9,16,-65,108,-127,-13,12,-26,-127,-78,-6,-86,-126,8,26,-57,108,75,-63,33,-127,-1,31,-16,9,127,-52,-83, -36,2,-7,-12,56,-6,46,-24,-20,11,-9,-1,-6,-2,-5,-27,-12,-3,-17,-25,-5,8,16,30,-2,-11,0,-17,8,6,16,10,-16,0,-13,57,-2,-68,-43,15,-3,-6,19,-13,-17,-25,-45,-23,-15,-3,-5,35,2,-5,9,-12,57,-16,6,-22,-8,-5,-51,-10,-25,-35,127,-28,-5,19,1,9,17,7,5,19,-12,30,-42,-16,-100,3,-110,-16,5,-30,15,-19,-37,-36,6,47,3,29,-21,14, 
  /* [0][1][][] */ -87,-5,40,-50,41,95,-38,-16,-5,-14,-24,-21,-127,22,21,70,-17,40,102,19,32,-18,120,-26,39,21,64,15,-12,2,-7,-20,-127,-17,70,-19,-9,-127,-62,-127,-16,-6,89,-34,-75,127,-87,-75,55,62,15,-45,-119,64,59,-26,22,-31,33,-11,12,-6,91,-83,-31,13,-28,-66,-12,-6,-127,15,72,127,11,-73,-122,-60,-62,-50,-77,-6,-23,-53,42,21,-99,59,-63,127,92,-85,127,3,-62,-3, 91,127,127,127,-127,-127,101,-62,127,127,-77,-63,-86,127,-29,127,127,-127,127,127,127,-82,85,-127,-127,-127,127,127,-118,127,-24,127,-65,127,127,-100,127,96,8,-18,127,-2,-127,-114,127,-27,127,127,127,-127,127,-114,114,127,-127,127,-127,127,-127,127,-108,123,103,-127,127,127,-15,127,-110,-127,-23,-127,15,115,127,70,-1,-127,91,-127,63,127,127,127,127,63,-127,127,-92,50,-5,-26,-91,-24,-127,-30, -127,-28,34,-62,5,54,-53,3,-36,-14,-2,127,-112,19,23,56,-24,49,73,6,17,-23,78,-25,39,9,40,1,-13,-5,14,-15,-95,-33,84,127,-3,-99,-82,-75,-27,-23,25,-40,-67,-66,-83,-102,42,67,-4,-27,127,11,87,-43,94,-28,47,-41,-1,-29,-127,-38,-63,-12,-54,-77,-20,2,-107,1,35,-96,8,127,-89,-38,-59,2,-106,-14,-60,-72,1,25,-80,41,-27,-80,127,127,-41,-23,-77,-5, 
  /* [0][2][][] */ -22,-38,-17,-14,28,-6,-6,20,-11,5,32,-30,51,-2,-8,-34,-3,-6,-43,-23,-11,-13,19,-24,4,-9,-11,3,0,-8,-25,5,3,-3,2,-23,-3,-37,-20,-11,-24,-2,26,9,20,11,-54,1,-30,5,-20,-17,-10,-30,27,-12,10,-18,5,-17,-3,16,5,-7,-33,-23,115,17,27,23,-6,2,-8,-13,-6,-27,-18,21,-29,-22,-28,4,-82,-16,-9,-5,42,-12,6,4,-5,-20,-13,-14,-27,-2, -28,-57,25,-91,-44,-5,51,127,-54,62,127,-26,-60,19,127,83,-11,-33,79,-50,-23,-36,127,13,19,-14,35,14,-12,5,-91,-44,-67,-32,-92,-6,-87,-100,47,-62,-22,-105,-37,127,25,-22,-45,-2,23,-7,-10,-8,59,27,-51,-38,-47,-48,42,-53,127,25,99,-1,-77,-50,-25,-53,127,28,-41,19,23,-28,21,-25,-24,-36,-1,39,-89,-22,-79,-68,40,-127,-7,13,-22,0,44,-1,13,-119,-76,127, -26,6,-15,-1,20,-13,1,17,-21,-2,15,37,58,-2,-7,-37,-5,9,-16,-29,-10,-5,11,-11,-2,-10,-12,-8,-4,-2,-32,4,9,1,2,0,-6,-52,-30,1,-30,1,-1,4,16,-5,-52,8,-26,-4,-13,-14,2,-33,24,-12,58,-11,10,-21,2,18,-14,10,-23,-26,-26,20,24,11,-14,2,-48,-37,-7,-13,-30,15,91,-9,-22,-2,-60,-3,-13,1,47,3,13,-3,-10,16,2,-20,-21,-6, 
};
const TfArray<4, int> tensor_dimension29 = { 4, { 1,3,3,96 } };
const TfArray<96, float> quant29_scale = { 96, { 0.0047577731311321259, 0.013936568982899189, 0.0078660519793629646, 0.0068517345935106277, 0.010783392004668713, 0.024085201323032379, 0.0047638136893510818, 0.0098812263458967209, 0.020259490236639977, 0.012227088212966919, 0.014601645991206169, 0.010192820802330971, 0.004460108932107687, 0.0075753531418740749, 0.011628758162260056, 0.0083634955808520317, 0.014809758402407169, 0.01600409671664238, 0.0050436356104910374, 0.019359372556209564, 0.010193483904004097, 0.012002657167613506, 0.0036116261035203934, 0.0085171163082122803, 0.095968171954154968, 0.0060456562787294388, 0.011191350407898426, 0.0072227185592055321, 0.014929024502635002, 0.0081316754221916199, 0.0088187465444207191, 0.01643327996134758, 0.0028533439617604017, 0.024302957579493523, 0.0070945080369710922, 0.0095376968383789062, 0.015903493389487267, 0.0037875850684940815, 0.010211753658950329, 0.0048658582381904125, 0.028779363259673119, 0.0089350407943129539, 0.010800118558108807, 0.0063683702610433102, 0.0073346677236258984, 0.014472468756139278, 0.0063529028557240963, 0.012640361674129963, 0.0091570671647787094, 0.023369146510958672, 0.013605671934783459, 0.0096448455005884171, 0.0066280057653784752, 0.012574912048876286, 0.013486705720424652, 0.012028943747282028, 0.0083522293716669083, 0.020526308566331863, 0.021397385746240616, 0.014508052729070187, 0.013159768655896187, 0.012759734876453876, 0.0069763553328812122, 0.0053831660188734531, 0.013046193867921829, 0.021835699677467346, 0.0054070418700575829, 0.0060657020658254623, 0.011494789272546768, 0.017533795908093452, 0.005382823757827282, 0.014209453016519547, 0.024397311732172966, 0.0081543652340769768, 0.007358125876635313, 0.0098389238119125366, 0.0032751623075455427, 0.0073244315572082996, 0.0056826621294021606, 0.0074147381819784641, 0.0032406256068497896, 0.014012591913342476, 0.00481044827029109, 0.014694925397634506, 0.0047791153192520142, 0.016444476321339607, 0.0064308927394449711, 0.010599547997117043, 0.0047580543905496597, 0.010441036894917488, 0.0045043560676276684, 0.011146429926156998, 0.014806924387812614, 0.0079082110896706581, 0.0030801179818809032, 0.013991327956318855, } };
const TfArray<96, int> quant29_zero = { 96, { 0,0,0,0,0,0,0,0,0,0,0,0,0,0,0,0,0,0,0,0,0,0,0,0,0,0,0,0,0,0,0,0,0,0,0,0,0,0,0,0,0,0,0,0,0,0,0,0,0,0,0,0,0,0,0,0,0,0,0,0,0,0,0,0,0,0,0,0,0,0,0,0,0,0,0,0,0,0,0,0,0,0,0,0,0,0,0,0,0,0,0,0,0,0,0,0 } };
const TfLiteAffineQuantization quant29 = { (TfLiteFloatArray*)&quant29_scale, (TfLiteIntArray*)&quant29_zero, 3 };
const ALIGN(16) int32_t tensor_data30[96] = { 16565, -1562, -9326, 11336, 735, 2546, 231, -1630, 3134, -6513, -112, -3064, 17339, -5278, -2875, -11264, -8, 110, -18725, 87, -4797, 216, -12818, 29, 71, 15011, -16655, -8440, -36, -5270, -245, -1234, 32712, 273, -4028, -258, -56, 22627, 5753, 17369, -481, 10032, -36, 10369, 698, -122, 14940, 2544, -9212, 20, -5845, 74, -324, -5892, 637, 3485, 916, 3606, 741, 2552, -235, -359, -120, 13574, 13888, 299, 23867, 18261, -1211, 120, 16470, -1796, -1, 1365, -7078, -92, 31948, 16699, 18656, 20343, 25363, -2628, 13824, 13889, -2082, -1254, 16408, -12253, 18081, 267, -13986, -1620, -346, 1290, 38241, -2776, };
const TfArray<1, int> tensor_dimension30 = { 1, { 96 } };
const TfArray<96, float> quant30_scale = { 96, { 6.0649155784631148e-05, 0.00017765477241482586, 0.00010027157259173691, 8.7341686594299972e-05, 0.00013746002514380962, 0.00030702329240739346, 6.0726157244062051e-05, 0.00012595977750606835, 0.00025825548800639808, 0.00015586336667183787, 0.0001861327764345333, 0.00012993178097531199, 5.6854714785004035e-05, 9.6565927378833294e-05, 0.00014823622768744826, 0.00010661267879186198, 0.00018878566334024072, 0.00020401034271344543, 6.4293155446648598e-05, 0.00024678133195266128, 0.00012994023563805968, 0.00015300246013794094, 4.6038781874813139e-05, 0.00010857094457605854, 0.0012233430752530694, 7.7066295489203185e-05, 0.00014266042853705585, 9.2070760729257017e-05, 0.00019030598923563957, 0.00010365757771069184, 0.000112415938929189, 0.00020948130986653268, 3.6372668546391651e-05, 0.00030979909934103489, 9.043640602612868e-05, 0.00012158066965639591, 0.00020272791152819991, 4.8281795898219571e-05, 0.00013017313904128969, 6.2026956584304571e-05, 0.00036686155362986028, 0.00011389838618924841, 0.00013767323980573565, 8.1180056440643966e-05, 9.3497816123999655e-05, 0.00018448609625920653, 8.098288526525721e-05, 0.00016113152378238738, 0.00011672863911371678, 0.00029789545806124806, 0.00017343671061098576, 0.00012294654152356088, 8.4489729488268495e-05, 0.00016029721882659942, 0.00017192019731737673, 0.00015333754708990455, 0.00010646906594047323, 0.00026165670715272427, 0.00027276066248305142, 0.00018493969400878996, 0.00016775260155554861, 0.0001626532175578177, 8.8930268248077482e-05, 6.8621280661318451e-05, 0.00016630483150947839, 0.00027834801585413516, 6.8925633968319744e-05, 7.7321827120613307e-05, 0.00014652847312390804, 0.00022351001098286361, 6.8616915086749941e-05, 0.00018113333499059081, 0.00031100187334232032, 0.00010394681157777086, 9.3796843430027366e-05, 0.00012542052718345076, 4.1749746742425486e-05, 9.336732910014689e-05, 7.2439070208929479e-05, 9.4518502010032535e-05, 4.1309496737085283e-05, 0.00017862387176137418, 6.1320628446992487e-05, 0.00018732184253167361, 6.092121111578308e-05, 0.00020962403505109251, 8.197705028578639e-05, 0.00013511649740394205, 6.0652739193756133e-05, 0.00013309589121490717, 5.7418750657234341e-05, 0.00014208781067281961, 0.00018874953093472868, 0.00010080899664899334, 3.9263442886294797e-05, 0.00017835281323641539, } };
const TfArray<96, int> quant30_zero = { 96, { 0,0,0,0,0,0,0,0,0,0,0,0,0,0,0,0,0,0,0,0,0,0,0,0,0,0,0,0,0,0,0,0,0,0,0,0,0,0,0,0,0,0,0,0,0,0,0,0,0,0,0,0,0,0,0,0,0,0,0,0,0,0,0,0,0,0,0,0,0,0,0,0,0,0,0,0,0,0,0,0,0,0,0,0,0,0,0,0,0,0,0,0,0,0,0,0 } };
const TfLiteAffineQuantization quant30 = { (TfLiteFloatArray*)&quant30_scale, (TfLiteIntArray*)&quant30_zero, 0 };
const ALIGN(16) int8_t tensor_data31[16*1*1*96] = { 
  /* [0][0][][] */ 20,25,11,18,-16,-71,-12,-5,-24,-73,11,-5,55,-67,53,31,-87,-30,36,6,79,21,-68,11,-8,64,127,70,14,73,57,-39,5,2,9,-23,30,25,-9,-8,116,17,25,-20,-8,-8,4,-42,26,-37,95,-4,-70,-4,38,33,-8,-41,7,20,-11,35,-64,-13,12,-6,65,31,3,-22,22,27,5,37,8,32,57,-33,47,21,-13,47,35,32,-56,10,-8,68,17,6,-88,-21,20,12,106,70, 
  /* [1][0][][] */ 21,40,-49,-16,-2,-48,94,-76,-63,-39,-64,-47,-3,-43,-10,-54,-31,-25,-32,-16,-15,-91,113,-34,-3,17,2,61,-52,8,-37,16,-32,23,14,6,-22,54,-58,84,29,12,0,-46,56,-59,-8,35,-84,-2,50,-106,-41,42,63,60,33,24,-66,14,-45,0,-14,-16,33,28,103,8,-43,-127,8,4,22,66,-22,34,-54,-30,104,-30,41,-12,54,-60,-28,-62,-19,14,-20,-45,32,0,68,-58,-34,55, 
  /* [2][0][][] */ 8,-18,18,-9,64,44,-53,24,-56,44,15,-26,34,-8,20,30,29,-27,-127,-10,-17,-42,-12,22,1,-17,-44,16,-37,-19,-18,69,-16,-37,-3,15,-44,25,-23,-19,71,13,4,41,6,55,5,-7,-84,5,-18,17,-24,48,13,-60,35,23,42,33,-25,-11,-21,55,39,-4,-34,-2,-4,-5,-13,-37,21,51,27,70,-54,-10,-26,-34,35,33,53,-16,-11,-42,-13,-49,-16,-35,-13,68,-1,-8,83,-40, 
  /* [3][0][][] */ 38,-39,-23,-115,-7,-31,112,-30,25,122,-78,-19,8,-23,-21,63,59,43,-26,17,-50,22,20,7,-45,78,51,-6,-44,-14,-69,65,-1,-21,30,-27,2,-55,-27,61,6,11,-19,24,57,-53,-5,33,48,-27,28,-39,104,41,30,-4,0,-23,-8,-45,-36,37,67,-5,-32,-27,123,-36,-38,-16,-51,27,14,-73,3,-77,17,-48,127,-4,-9,-56,-37,-49,-34,-45,75,79,-42,46,-59,0,8,-81,-21,33, 
  /* [4][0][][] */ -29,77,33,14,-12,9,-37,-21,13,-32,3,-14,22,44,-23,23,-10,-42,-17,-73,28,-34,-62,16,-28,-35,-23,17,-38,127,-52,-18,5,-43,-3,-30,71,43,-34,2,14,8,15,-40,-49,-6,52,-22,23,-17,-63,-10,-66,28,45,21,5,57,-23,20,-33,-72,-27,5,53,24,-65,-8,0,0,8,-70,-13,61,53,64,-33,18,-61,40,17,65,28,-63,43,-65,-30,-67,-39,-49,-49,-14,0,8,33,-30, 
  /* [5][0][][] */ -5,-10,38,-18,-11,-21,-15,2,37,7,-17,-4,-18,-28,22,-19,-11,4,-49,-33,-21,15,-21,11,21,-42,65,-18,-3,39,11,75,-8,-81,20,9,-36,-28,-30,1,-49,-3,-22,12,4,19,-70,24,-19,16,48,-10,23,-72,4,18,-23,-54,7,-36,39,22,23,44,-38,9,107,-23,-6,-23,12,16,-2,28,35,10,-6,-14,127,37,-23,-12,-29,27,41,60,4,91,2,-34,-8,10,11,-13,-29,19, 
  /* [6][0][][] */ 25,-60,75,14,-44,121,-51,-107,-25,-84,-91,63,9,12,-35,96,10,42,17,-42,-92,-25,-93,-67,6,-55,-10,77,-125,57,-21,-33,46,96,-20,-4,-1,-41,19,-20,-68,43,33,-37,24,53,-105,-8,56,10,-90,-127,88,8,-40,-22,27,-31,26,-23,-16,-47,41,0,60,-81,-73,-67,-104,17,-16,-85,-31,-107,26,-113,92,11,-82,47,-34,90,23,-107,72,-47,-17,-1,-77,84,-88,94,49,-53,74,-108, 
  /* [7][0][][] */ -11,-11,-60,60,-29,-2,40,-3,-99,2,83,55,-3,-56,-1,-34,-11,-3,0,-2,-50,-24,-39,-41,70,45,-6,70,-1,32,20,29,-52,-127,29,106,-2,16,-41,6,-8,-11,4,-78,29,56,68,84,-15,46,-49,3,27,-44,45,-57,-16,34,-79,-20,58,8,7,-35,72,-50,106,-16,-61,-26,69,2,-16,-28,-78,-24,30,-39,96,-33,-2,-11,-74,-34,45,20,-74,44,-10,15,5,31,65,-7,85,-7, 
  /* [8][0][][] */ -10,-57,9,6,-10,-5,18,-5,-12,-4,45,42,14,28,-40,-5,69,-2,15,-1,-13,-73,-33,-20,-24,-34,69,4,-20,46,5,-30,-14,-3,0,0,-45,-17,16,-25,-5,40,27,-39,12,-17,24,-14,35,-2,47,3,-5,11,-42,1,-16,105,-58,-4,-14,-60,-59,-6,-84,-35,-20,18,-8,11,37,-21,-27,-127,42,-103,11,14,-58,19,-27,-10,1,57,62,-60,-40,49,-35,85,12,-20,-50,1,-3,-61, 
  /* [9][0][][] */ -27,-26,-27,22,4,18,4,38,-43,2,61,55,-26,54,25,-47,-17,33,-20,-43,1,39,-4,9,-22,23,8,15,33,-7,15,-8,-15,-21,6,54,-20,-5,23,-1,-11,-25,12,2,8,44,2,40,-43,8,-15,30,127,20,-11,2,16,-13,32,17,-31,3,80,10,13,23,63,7,32,-7,-20,23,6,-122,-37,-120,-31,-12,40,-2,-4,33,3,-40,41,14,-54,-1,-3,110,37,31,52,34,-12,29, 
  /* [10][0][][] */ 22,43,14,-3,-16,14,-41,-21,66,8,-36,21,18,9,-4,-54,-31,0,20,0,23,-13,-18,-30,13,-19,-93,42,-20,52,-2,11,19,23,-18,3,13,4,3,-1,41,-10,56,-42,-30,-2,18,27,18,4,11,-24,-21,-13,-2,35,-12,8,-12,-7,-12,-36,-6,11,-3,-14,-89,-28,-50,-17,45,-15,-19,31,35,19,50,-19,-90,12,-11,32,0,-4,8,8,-70,-127,-24,26,12,21,50,-30,18,31, 
  /* [11][0][][] */ 21,-41,1,6,-57,32,13,8,70,-16,-20,-41,21,10,12,-10,-30,49,22,-63,6,30,17,-25,38,12,61,0,30,-58,-29,17,18,102,-98,5,13,-13,57,10,-49,48,-16,15,-44,1,-12,-6,49,-19,-24,-15,-21,17,-79,92,-29,2,-4,-31,23,4,-9,-65,-7,-45,-127,-77,-1,-35,-90,30,51,19,-8,1,34,56,-112,-35,-11,-4,-14,-3,-21,-4,57,78,21,-48,8,7,-35,28,81,31, 
  /* [12][0][][] */ 20,26,-35,-26,15,-24,5,36,54,-37,19,-3,0,-16,-5,12,9,-42,-25,12,11,56,4,51,-39,-37,-127,-10,74,-24,29,-1,-18,-73,70,-7,32,-13,-4,18,-3,-56,14,34,44,-2,24,-16,-71,-2,-49,95,74,-23,31,-74,9,22,-38,-33,15,51,76,4,-14,-17,32,24,109,26,24,28,4,-18,-11,-6,-35,-56,44,-67,22,-47,31,-39,5,6,6,-104,-8,35,-40,20,15,68,12,42, 
  /* [13][0][][] */ -14,22,-69,24,26,15,-9,6,28,66,-34,40,-46,-21,61,-47,11,50,59,12,-29,-40,-4,15,42,45,-19,23,8,39,53,-18,-14,63,-3,46,19,-36,-50,-48,3,-13,15,15,46,49,-30,48,-45,35,-1,3,-16,-39,62,39,13,-43,-12,-14,24,20,3,-25,16,87,127,36,22,0,-47,-16,38,53,-76,52,19,-70,125,-39,-12,-32,23,1,29,56,-31,-20,-15,-23,10,48,41,14,59,54, 
  /* [14][0][][] */ -9,48,19,22,-57,-42,19,40,-76,-23,70,10,-77,-8,67,-21,-48,36,-57,22,-25,23,-93,12,-48,-2,-51,-110,13,-4,28,75,-57,27,15,-15,-25,-69,-10,-40,28,-34,48,-22,-12,47,-73,25,-13,-44,82,29,-15,26,-31,30,-55,30,1,41,37,61,-9,41,13,-51,3,-66,41,59,73,35,-52,34,8,13,28,-13,38,17,-68,117,-1,-127,80,-3,-1,11,-105,-17,-19,-5,-28,12,37,32, 
  /* [15][0][][] */ 74,-33,25,30,38,8,-12,-7,23,32,-59,-17,68,68,-5,-20,-8,8,-81,55,3,-30,16,29,68,-34,89,28,46,-31,-43,70,67,59,0,-81,64,72,69,53,94,40,-20,6,-39,-123,38,-35,-33,-21,-16,-5,-5,-55,-30,55,-13,7,-12,19,5,-51,-31,31,42,49,-80,39,-8,-32,-6,-4,0,-126,-45,-104,-22,20,-127,34,82,-35,51,31,-54,-3,-6,-21,38,93,13,-63,-31,-31,36,-38, 
};
const TfArray<4, int> tensor_dimension31 = { 4, { 16,1,1,96 } };
const TfArray<16, float> quant31_scale = { 16, { 0.0034393013920634985, 0.002522207098081708, 0.0026237764395773411, 0.0026172443758696318, 0.0039404565468430519, 0.0059090047143399715, 0.0022590628359466791, 0.0024868366308510303, 0.0046300445683300495, 0.0042140302248299122, 0.0043794405646622181, 0.0033136862330138683, 0.0036011722404509783, 0.0037313015200197697, 0.003195042721927166, 0.0030467144679278135, } };
const TfArray<16, int> quant31_zero = { 16, { 0,0,0,0,0,0,0,0,0,0,0,0,0,0,0,0 } };
const TfLiteAffineQuantization quant31 = { (TfLiteFloatArray*)&quant31_scale, (TfLiteIntArray*)&quant31_zero, 0 };
const ALIGN(16) int32_t tensor_data32[16] = { -30292, -6430, 3314, -15791, 15269, -15552, 27693, -9954, 14455, -10863, 13845, 13712, -4160, -34518, 1348, 4075, };
const TfArray<1, int> tensor_dimension32 = { 1, { 16 } };
const TfArray<16, float> quant32_scale = { 16, { 7.0014444645494223e-05, 5.134500315762125e-05, 5.341266660252586e-05, 5.3279691201169044e-05, 8.021654502954334e-05, 0.00012029062054352835, 4.5988130295882002e-05, 5.0624959840206429e-05, 9.4254610303323716e-05, 8.5785737610422075e-05, 8.9153021690435708e-05, 6.7457280238159001e-05, 7.3309682193212211e-05, 7.595874194521457e-05, 6.5042033384088427e-05, 6.2022489146329463e-05, } };
const TfArray<16, int> quant32_zero = { 16, { 0,0,0,0,0,0,0,0,0,0,0,0,0,0,0,0 } };
const TfLiteAffineQuantization quant32 = { (TfLiteFloatArray*)&quant32_scale, (TfLiteIntArray*)&quant32_zero, 0 };
const ALIGN(16) int8_t tensor_data33[96*1*1*16] = { 
  /* [0][0][][] */ -52,49,-12,-28,-30,-61,-66,-37,69,-53,40,-56,86,-120,14,-127, 
  /* [1][0][][] */ -104,66,-106,-112,-80,25,-12,60,-42,4,94,-52,48,127,23,46, 
  /* [2][0][][] */ -44,-10,-78,7,-10,-50,27,-41,-92,127,75,9,50,59,-46,114, 
  /* [3][0][][] */ -53,-73,8,-42,-86,10,-57,-127,-4,16,42,-76,-70,-41,-125,-47, 
  /* [4][0][][] */ 74,2,-17,41,-64,-8,-127,39,20,70,17,52,4,3,-49,-85, 
  /* [5][0][][] */ -98,57,-89,-31,58,-59,-20,-84,98,-29,15,-42,21,-121,-127,-101, 
  /* [6][0][][] */ -9,-36,-35,24,-87,73,38,-42,-22,-55,127,-25,-5,-1,-118,10, 
  /* [7][0][][] */ -29,109,127,-84,60,83,-3,-60,40,64,-87,-16,52,3,25,75, 
  /* [8][0][][] */ -49,4,38,-7,56,10,96,127,-78,-23,-67,-84,43,91,-69,-62, 
  /* [9][0][][] */ 38,48,103,28,-118,-44,-102,-119,71,13,127,30,-45,-104,57,-23, 
  /* [10][0][][] */ -12,-117,9,-78,-127,73,33,31,-31,-58,-3,39,-18,58,-126,26, 
  /* [11][0][][] */ 119,-59,-12,95,-117,-35,58,-7,127,118,-51,45,26,-84,-16,114, 
  /* [12][0][][] */ -64,-64,127,-12,55,-19,23,56,65,-24,97,69,-29,16,-94,30, 
  /* [13][0][][] */ -4,-31,20,24,13,10,127,34,-103,12,9,12,-24,115,96,-71, 
  /* [14][0][][] */ 126,-88,127,4,75,62,108,60,83,70,60,43,67,-49,38,-57, 
  /* [15][0][][] */ -4,123,10,-41,36,127,-76,67,-42,-23,-39,-12,-48,119,-24,-48, 
  /* [16][0][][] */ -40,64,110,-45,23,80,2,-8,-8,12,-14,45,88,2,89,127, 
  /* [17][0][][] */ 13,109,80,-127,32,-41,6,-79,-55,83,-26,58,-65,-29,102,-61, 
  /* [18][0][][] */ -85,3,-76,-91,116,86,-48,-69,45,86,127,78,-9,112,-43,-7, 
  /* [19][0][][] */ 48,127,90,70,52,-31,-10,-2,-30,119,41,115,60,66,-54,37, 
  /* [20][0][][] */ 102,-2,2,70,-75,-7,-31,52,-32,-54,-127,-43,95,-47,34,-7, 
  /* [21][0][][] */ -90,-77,-24,115,-29,4,-127,65,7,-4,32,21,-39,34,-64,9, 
  /* [22][0][][] */ -5,2,-65,-49,127,1,-33,52,56,71,41,63,-17,26,-14,31, 
  /* [23][0][][] */ -69,20,-17,13,15,56,100,85,-17,127,-23,-30,-3,28,-59,-31, 
  /* [24][0][][] */ 30,-77,39,2,127,33,71,-37,54,26,44,30,-63,32,-7,-18, 
  /* [25][0][][] */ 127,-61,79,22,9,-9,-34,90,121,-24,-56,10,122,-56,98,42, 
  /* [26][0][][] */ 59,39,108,91,75,-11,-67,-17,5,68,15,127,29,-69,26,-58, 
  /* [27][0][][] */ -59,38,-78,21,-31,112,19,-94,31,-86,124,21,43,-44,127,106, 
  /* [28][0][][] */ -40,32,-78,-127,31,-81,1,-54,-98,89,-56,29,-22,27,-30,70, 
  /* [29][0][][] */ 88,96,-75,42,32,83,-46,-22,49,47,7,61,-127,15,-24,79, 
  /* [30][0][][] */ -27,80,-120,-61,80,-40,13,13,-58,52,-69,-9,9,65,-14,127, 
  /* [31][0][][] */ 25,-116,87,43,63,-70,-80,35,-20,1,21,-37,-73,55,38,127, 
  /* [32][0][][] */ -58,63,-1,42,-104,55,14,62,22,-127,28,-87,30,43,40,52, 
  /* [33][0][][] */ -73,-7,62,89,-4,19,-51,16,-44,-51,13,-16,-9,-3,9,127, 
  /* [34][0][][] */ -14,9,-86,-92,54,-11,-5,61,19,-10,3,-14,-51,-21,-35,127, 
  /* [35][0][][] */ 71,-9,23,-10,-1,18,-76,-22,-17,-127,-54,11,-5,-30,47,-27, 
  /* [36][0][][] */ -7,23,-124,-16,37,127,-8,43,-27,14,59,30,15,29,-79,50, 
  /* [37][0][][] */ 56,39,62,-54,58,-127,40,-20,-109,61,-88,-26,9,20,99,33, 
  /* [38][0][][] */ -35,127,30,-43,34,24,71,-91,9,0,-107,35,-51,-92,-82,15, 
  /* [39][0][][] */ 88,47,-127,-121,-21,-28,12,-65,7,-6,3,-42,64,7,-122,-70, 
  /* [40][0][][] */ -36,22,-75,-84,-47,-14,20,-127,-8,-10,5,-35,39,72,37,63, 
  /* [41][0][][] */ -37,-93,-13,127,-1,-18,-67,-11,-5,-52,69,-65,-68,-9,5,25, 
  /* [42][0][][] */ -19,62,-19,-127,20,17,6,-29,54,-2,-42,16,70,-19,-18,12, 
  /* [43][0][][] */ 5,44,4,18,127,28,24,20,10,39,-3,-83,-117,-46,-16,-14, 
  /* [44][0][][] */ 81,-15,28,41,-27,-12,4,34,28,-37,27,9,127,5,-50,-31, 
  /* [45][0][][] */ 18,-85,-61,38,-39,-88,7,45,30,-22,11,34,-83,127,41,-37, 
  /* [46][0][][] */ -16,-87,46,77,0,-4,-107,53,32,-56,52,-22,34,76,81,127, 
  /* [47][0][][] */ -38,-54,19,76,1,-3,54,19,5,-65,-127,-35,44,-32,-61,16, 
  /* [48][0][][] */ -78,90,-16,-28,4,61,-5,-127,28,-27,39,-53,52,-127,-57,2, 
  /* [49][0][][] */ -59,6,43,-38,2,6,125,127,-31,-37,-11,20,-48,30,-51,30, 
  /* [50][0][][] */ 53,20,-75,33,36,-127,-43,0,-77,50,-42,-1,18,-81,-113,-48, 
  /* [51][0][][] */ -50,57,-34,113,-38,45,-46,-78,-43,-85,2,-54,1,34,-13,127, 
  /* [52][0][][] */ -127,6,20,-2,24,44,61,10,12,-83,-42,-41,-104,-57,-117,-9, 
  /* [53][0][][] */ -49,-74,-56,-127,-39,-7,11,81,39,-66,-48,28,-29,28,65,105, 
  /* [54][0][][] */ 10,-54,1,-6,-62,62,55,-22,-21,-90,55,30,-20,-12,-127,42, 
  /* [55][0][][] */ -18,-30,-41,30,63,-27,63,89,-59,-59,-127,-36,62,-29,-24,40, 
  /* [56][0][][] */ 73,-37,-55,-28,-127,23,-119,-7,-10,-18,-40,13,102,-42,51,9, 
  /* [57][0][][] */ -51,12,21,-30,127,40,50,41,-37,46,-1,-10,-57,74,-104,-24, 
  /* [58][0][][] */ 24,-1,2,-22,37,-13,-46,-57,48,-127,-63,1,-73,-49,-30,55, 
  /* [59][0][][] */ -70,-27,-3,9,15,55,-98,-44,80,127,-83,11,-23,4,-18,1, 
  /* [60][0][][] */ 20,-50,-2,17,-127,-47,30,6,-4,46,-18,47,1,-39,38,42, 
  /* [61][0][][] */ 20,31,-86,-12,-50,-22,-127,-81,-19,6,39,107,69,-61,106,60, 
  /* [62][0][][] */ 58,-19,50,-24,-16,38,47,127,-66,127,23,93,32,42,82,115, 
  /* [63][0][][] */ 20,-123,-14,-17,-71,14,47,-26,-10,-21,0,-15,-37,127,104,35, 
  /* [64][0][][] */ -9,-6,-127,-36,19,52,33,-20,-7,-102,46,-1,67,-39,-69,106, 
  /* [65][0][][] */ -10,-5,65,60,85,-19,80,83,-39,-3,-127,-76,30,106,-75,-17, 
  /* [66][0][][] */ -43,-127,-9,-104,-70,-125,49,-32,-7,-44,23,89,-65,-39,-70,86, 
  /* [67][0][][] */ -28,-83,-83,-26,-81,113,-2,-127,-81,-28,-40,-96,19,-15,-64,43, 
  /* [68][0][][] */ 127,46,22,-10,-78,15,-68,-53,-75,-111,-22,-11,36,-28,70,-64, 
  /* [69][0][][] */ 37,4,46,-22,-2,-47,-48,29,-12,127,-29,6,-4,33,67,-29, 
  /* [70][0][][] */ 42,-6,-26,76,-119,33,-16,-100,99,127,29,64,50,-56,-5,21, 
  /* [71][0][][] */ 127,-83,76,111,-93,-41,44,-27,124,7,-52,44,74,-72,28,18, 
  /* [72][0][][] */ -8,-45,43,106,57,1,-127,88,86,-8,43,5,-47,-72,-75,87, 
  /* [73][0][][] */ 71,17,67,-127,70,-89,-77,53,-15,116,-36,15,15,-84,30,-42, 
  /* [74][0][][] */ 92,10,35,44,-127,-29,39,-4,-76,-43,10,-44,30,-71,7,17, 
  /* [75][0][][] */ 82,127,-105,20,64,59,-22,-32,-18,-25,51,80,-114,56,58,80, 
  /* [76][0][][] */ -71,-38,0,-45,-55,-6,93,-5,-64,25,100,48,-54,-127,-21,92, 
  /* [77][0][][] */ -57,127,-27,17,-60,-78,45,83,46,-65,-15,72,-23,58,-8,87, 
  /* [78][0][][] */ 123,49,-65,34,-86,36,-127,-22,-11,-15,-74,10,33,-107,30,69, 
  /* [79][0][][] */ -72,-37,127,56,-24,-96,-53,-52,-23,19,16,16,-69,123,-58,71, 
  /* [80][0][][] */ 60,102,27,-127,-13,31,95,-33,14,19,-38,23,85,-52,3,-2, 
  /* [81][0][][] */ 39,-65,18,-121,100,44,-11,127,112,30,-21,-53,-20,20,-96,-73, 
  /* [82][0][][] */ 79,46,74,-1,127,-99,27,45,-2,105,-33,27,-11,-43,36,-104, 
  /* [83][0][][] */ -39,85,15,12,91,67,127,110,-10,51,-30,-70,-92,104,-58,-102, 
  /* [84][0][][] */ 3,-95,-8,101,2,-86,-84,38,-91,64,-64,-13,-127,71,-9,-59, 
  /* [85][0][][] */ -102,53,-38,-8,-19,-43,-47,-37,-15,41,16,-72,-127,-84,-71,45, 
  /* [86][0][][] */ -13,60,98,117,38,-38,56,19,8,24,-53,-74,28,76,-127,-69, 
  /* [87][0][][] */ -18,47,127,-27,-99,-30,21,12,35,-24,12,43,-51,19,-9,-6, 
  /* [88][0][][] */ -27,-74,-118,28,41,38,-5,23,-20,-83,-118,-105,127,-17,10,41, 
  /* [89][0][][] */ 35,22,19,-122,8,-65,-54,54,127,-16,25,-104,6,-38,61,-82, 
  /* [90][0][][] */ 2,68,23,11,-38,38,38,115,6,-59,-12,127,52,13,-42,80, 
  /* [91][0][][] */ -53,3,-19,67,81,52,-40,-113,-40,34,-10,15,-104,-127,-61,-16, 
  /* [92][0][][] */ -30,69,1,-21,-127,2,-87,53,-42,57,93,76,-16,-20,65,9, 
  /* [93][0][][] */ 111,44,101,47,-127,-81,15,26,-20,-64,-25,-70,24,-57,-9,-2, 
  /* [94][0][][] */ -34,-127,25,-102,14,35,-22,4,81,-21,2,55,13,58,-48,42, 
  /* [95][0][][] */ -42,-60,-28,-57,121,113,-32,44,88,46,-74,57,-34,127,-79,40, 
};
const TfArray<4, int> tensor_dimension33 = { 4, { 96,1,1,16 } };
const TfArray<96, float> quant33_scale = { 96, { 0.0014675323618575931, 0.0014496829826384783, 0.0022375809494405985, 0.0024071978405117989, 0.0019284961745142937, 0.0010535066248849034, 0.0013030819827690721, 0.0022410056553781033, 0.0020909453742206097, 0.0010412664851173759, 0.0027658094186335802, 0.0015275633195415139, 0.001897477894090116, 0.0020826689433306456, 0.0020948671735823154, 0.0019288297044113278, 0.0024882915895432234, 0.0011907906737178564, 0.0018135412828996778, 0.0023849387653172016, 0.0020165159367024899, 0.000968246313277632, 0.001334988628514111, 0.0022681632544845343, 0.0021698791533708572, 0.0020556829404085875, 0.00094529864145442843, 0.0017474954947829247, 0.0021660348866134882, 0.0021372800692915916, 0.0011739617912098765, 0.002230111276730895, 0.0011384974932298064, 0.0027067998889833689, 0.0023951565381139517, 0.0021133446134626865, 0.0021759180817753077, 0.0014841395895928144, 0.0022357804700732231, 0.0022869869135320187, 0.0022769593633711338, 0.0024917814880609512, 0.0029459542129188776, 0.0030441377311944962, 0.0036333967000246048, 0.0026272935792803764, 0.0018891927320510149, 0.0022691427730023861, 0.0018865708261728287, 0.0026320009492337704, 0.0018787210574373603, 0.0019242139533162117, 0.0021843749564141035, 0.0031096136663109064, 0.002756193745881319, 0.0024428137112408876, 0.0022299047559499741, 0.0019517667824402452, 0.0015994743444025517, 0.0024907076731324196, 0.0029036507476121187, 0.0016377847641706467, 0.0017992402426898479, 0.0023087819572538137, 0.0018780643586069345, 0.0014293011045083404, 0.0017737078014761209, 0.0020338247995823622, 0.0015245905378833413, 0.0027613081037998199, 0.0015336194774135947, 0.0017205955227836967, 0.0017744932556524873, 0.0016255028313025832, 0.0020172423683106899, 0.0016615048516541719, 0.0028976511675864458, 0.0025957454927265644, 0.0019175147172063589, 0.0021403031423687935, 0.0020613463129848242, 0.0017038262449204922, 0.001187420217320323, 0.001821771846152842, 0.0018885189201682806, 0.0022959944326430559, 0.0026168492622673512, 0.0036967734340578318, 0.00084008264821022749, 0.0026045632548630238, 0.003543277271091938, 0.0024565376807004213, 0.0010489695705473423, 0.0019843080081045628, 0.0029023746028542519, 0.0018773766933009028, } };
const TfArray<96, int> quant33_zero = { 96, { 0,0,0,0,0,0,0,0,0,0,0,0,0,0,0,0,0,0,0,0,0,0,0,0,0,0,0,0,0,0,0,0,0,0,0,0,0,0,0,0,0,0,0,0,0,0,0,0,0,0,0,0,0,0,0,0,0,0,0,0,0,0,0,0,0,0,0,0,0,0,0,0,0,0,0,0,0,0,0,0,0,0,0,0,0,0,0,0,0,0,0,0,0,0,0,0 } };
const TfLiteAffineQuantization quant33 = { (TfLiteFloatArray*)&quant33_scale, (TfLiteIntArray*)&quant33_zero, 0 };
const ALIGN(16) int32_t tensor_data34[96] = { 12306, 6089, 1734, -2088, 8774, 18600, 15509, 3005, -485, 18314, 1657, -7737, 6780, 5502, 846, -1114, 5888, 15265, -858, 57, 7280, 22570, 15890, -2897, -6117, -1677, 23110, 27, 2796, 2126, 17257, -2993, 16815, 4251, 7134, -7054, 1561, -9876, 257, 3326, 4803, 2402, 2838, -645, 1575, 3500, 7228, 6719, 7508, 4750, 9234, 5401, -4101, 2779, 2097, 4050, 3677, 4756, 12620, 2122, -1768, 10790, 7709, 6333, 7311, 12683, -8006, 5096, 9868, -1106, 10935, 2920, 5946, 6252, 6550, 3977, -642, 3305, 4821, 5945, 5159, 6288, 15711, 1519, 4536, 7147, 1231, -1470, 27220, -674, 1146, -2182, 19982, 5043, -18, -1928, };
const TfArray<1, int> tensor_dimension34 = { 1, { 96 } };
const TfArray<96, float> quant34_scale = { 96, { 6.0204838518984616e-05, 5.9472575230756775e-05, 9.1795729531440884e-05, 9.8754186183214188e-05, 7.9115670814644545e-05, 4.3219624785706401e-05, 5.3458337788470089e-05, 9.1936228272970766e-05, 8.5780069639440626e-05, 4.2717478208942339e-05, 0.00011346605606377125, 6.2667582824360579e-05, 7.7843156759627163e-05, 8.5440537077374756e-05, 8.5940962890163064e-05, 7.912934961495921e-05, 0.00010208101593889296, 4.8851637984625995e-05, 7.439969340339303e-05, 9.7841017122846097e-05, 8.2726641267072409e-05, 3.9721860957797617e-05, 5.4767293477198109e-05, 9.3050352006684989e-05, 8.9018292783293873e-05, 8.4333449194673449e-05, 3.8780442991992459e-05, 7.1690199547447264e-05, 8.8860586402006447e-05, 8.7680928118061274e-05, 4.8161240556510165e-05, 9.1489288024604321e-05, 4.670633643399924e-05, 0.00011104522127425298, 9.8260192316956818e-05, 8.6698986706323922e-05, 8.9266039140056819e-05, 6.0886144638061523e-05, 9.1721864009741694e-05, 9.3822585768066347e-05, 9.341121040051803e-05, 0.00010222418495686725, 0.00012085641355952248, 0.00012488434731494635, 0.00014905842544976622, 0.00010778351133922115, 7.7503260399680585e-05, 9.3090537120588124e-05, 7.7395699918270111e-05, 0.00010797662980621681, 7.7073666034266353e-05, 7.8939992818050086e-05, 8.9612978626973927e-05, 0.00012757047079503536, 0.00011307158274576068, 0.00010021530761150643, 9.1480818809941411e-05, 8.0070334661286324e-05, 6.5617699874565005e-05, 0.00010218013630947098, 0.00011912093759747222, 6.7189364926889539e-05, 7.3813003837130964e-05, 9.4716713647358119e-05, 7.7046723163221031e-05, 5.8636418543756008e-05, 7.2765542427077889e-05, 8.3436723798513412e-05, 6.2545623222831637e-05, 0.00011328139225952327, 6.2916034949012101e-05, 7.0586640504188836e-05, 7.2797767643351108e-05, 6.6685504862107337e-05, 8.2756436313502491e-05, 6.8162473326083273e-05, 0.00011887480650329962, 0.0001064892639988102, 7.8665158071089536e-05, 8.7804954091552645e-05, 8.4565785073209554e-05, 6.9898684159852564e-05, 4.871336932410486e-05, 7.473734876839444e-05, 7.7475619036704302e-05, 9.4192117103375494e-05, 0.0001073550374712795, 0.00015165843069553375, 3.4464002965250984e-05, 0.00010685101005947217, 0.00014536132221110165, 0.00010077832848764956, 4.3033494875999168e-05, 8.1405320088379085e-05, 0.00011906857980648056, 7.7018514275550842e-05, } };
const TfArray<96, int> quant34_zero = { 96, { 0,0,0,0,0,0,0,0,0,0,0,0,0,0,0,0,0,0,0,0,0,0,0,0,0,0,0,0,0,0,0,0,0,0,0,0,0,0,0,0,0,0,0,0,0,0,0,0,0,0,0,0,0,0,0,0,0,0,0,0,0,0,0,0,0,0,0,0,0,0,0,0,0,0,0,0,0,0,0,0,0,0,0,0,0,0,0,0,0,0,0,0,0,0,0,0 } };
const TfLiteAffineQuantization quant34 = { (TfLiteFloatArray*)&quant34_scale, (TfLiteIntArray*)&quant34_zero, 0 };
const ALIGN(16) int8_t tensor_data35[1*3*3*96] = { 
  /* [0][0][][] */ 26,127,-5,16,-31,4,40,43,58,-73,-79,33,-13,-9,31,-46,-85,18,17,23,40,67,71,92,13,-6,-48,1,-11,16,16,-20,-50,3,-33,93,-3,43,4,-6,25,-37,-5,32,-95,-46,11,-33,-20,-92,-29,-2,17,54,-22,-9,-76,-65,-59,-127,-127,1,-88,0,-29,42,35,-22,-19,40,33,-9,-34,8,42,-3,2,-35,-83,23,2,-86,52,-29,-86,-47,-11,10,-107,14,-73,37,70,-8,64,2, -41,-37,-3,86,-9,92,-25,-4,62,23,-127,62,-29,-64,-87,127,-103,65,47,76,127,15,101,127,26,19,18,49,3,127,-12,-127,71,81,4,41,73,99,-24,-127,127,-8,91,127,-52,-84,127,-78,-11,-119,-105,-27,15,127,-27,-127,2,28,-127,-78,-49,-127,-43,95,-35,86,111,-34,6,127,127,-5,-76,27,-35,-101,28,-53,-21,127,-7,-64,127,-67,-127,-44,97,53,98,98,-81,2,127,-29,127,34, 17,-108,0,6,-16,-13,-14,46,28,63,-61,13,-10,43,9,-73,-28,14,7,16,37,51,53,94,16,-26,27,43,5,19,-11,-57,-44,-80,-34,60,-1,-6,15,14,-8,31,-17,56,-32,-24,1,-3,24,-69,15,11,4,-13,12,-2,47,-79,-20,-74,-87,24,-66,-9,38,13,-50,-14,-21,-9,7,9,-16,-39,-9,8,6,-11,-81,-1,3,-101,31,-11,-16,-34,-2,-23,-84,0,-16,33,18,36,21,-9, 
  /* [0][1][][] */ 94,-7,61,115,4,-50,127,41,-31,-127,-100,127,-1,-127,-52,30,-68,-49,71,22,-107,3,-127,-74,-16,54,-127,127,-80,83,127,77,24,58,10,127,-127,63,-17,-59,57,-127,22,68,-127,-71,4,-127,-112,-112,-127,17,127,-62,83,-22,-127,-3,-66,1,-62,-64,-36,50,-98,-21,93,-100,-40,33,-41,-127,-127,66,127,-83,96,67,-96,-47,127,-127,-30,108,-42,-15,5,77,-3,26,-61,27,-10,-81,81,-14, -127,4,-50,127,-82,-127,-118,-127,67,0,-61,39,-93,-126,-43,104,-127,-127,127,127,32,-127,-113,98,-127,127,11,66,-81,-37,-107,82,-127,85,127,-35,29,127,127,-93,-43,28,24,35,-45,-127,-74,-112,-7,-127,-110,127,36,84,62,-78,18,20,92,-27,-37,-41,-127,127,-12,-127,127,127,24,72,-94,-77,-26,55,-108,-127,127,127,91,-48,-80,5,-96,65,-108,-99,127,127,127,127,-127,-127,-96,-55,94,127, 54,-9,97,65,5,-25,5,30,-46,109,-72,69,8,-11,-127,68,18,-36,21,-3,-110,7,-84,-76,-6,18,125,-10,127,114,14,-111,-29,-127,-16,117,-120,1,-30,-44,-13,101,22,108,-18,-21,-7,-82,127,-97,-88,-2,58,-91,-127,26,96,-4,-123,66,-18,-41,2,52,127,-44,-29,-17,-51,-4,-36,-44,-125,-127,-6,-43,-7,-24,-127,-44,-69,-126,-19,127,-123,12,-3,-7,-29,-10,-3,42,-20,127,23,-14, 
  /* [0][2][][] */ 30,-127,35,-13,11,19,29,51,-39,-46,10,-32,15,-6,4,32,-14,20,-7,35,-6,46,8,-34,17,44,-7,-3,-22,20,3,24,-27,-17,-27,-3,43,-6,4,-30,-2,15,-14,-37,-16,-32,-14,-9,-14,26,-30,29,-13,-4,-36,-16,-8,-4,1,31,-45,-3,36,-8,-29,45,-54,-31,26,4,13,83,-17,15,19,8,-40,-32,-10,-3,10,-20,-16,-41,-86,32,-29,-15,-76,38,3,23,-14,1,6,-15, -52,14,127,-4,127,71,-31,10,-127,12,-69,-39,127,-19,-54,26,14,53,-6,-54,18,14,53,-4,63,-50,-9,33,-14,115,-15,21,-89,26,10,-37,67,39,23,-106,-24,-2,-127,8,-9,-9,-38,-58,-6,-61,-52,88,98,-69,-36,-77,-16,127,-39,12,69,-107,76,71,-24,22,-47,7,127,-14,9,101,-82,17,-21,-54,-12,-76,-38,-41,-9,-69,-29,-70,-88,127,32,-2,90,37,38,25,-32,-13,-6,-3, 10,97,27,-26,3,-5,-17,40,5,63,25,2,4,4,-2,38,-19,7,-4,30,-17,37,-4,-34,8,36,12,28,10,28,-23,-74,-49,-22,-19,-21,34,-30,1,-11,-6,-8,6,3,-29,-16,-15,-1,19,30,-21,10,-16,-16,8,6,8,8,7,62,-40,14,24,-16,34,11,-74,11,19,-1,8,81,24,-16,-6,7,-17,-11,-3,1,-5,-60,-13,-14,-61,25,-28,-25,-74,36,16,19,-20,9,-8,-15, 
};
